{"learner":{"attributes":{"scikit_learn":"{\"_estimator_type\": \"regressor\"}"},"feature_names":["NDVI","NDBI","MNDWI","Albedo","building_density"],"feature_types":["float","float","float","float","float"],"gradient_booster":{"model":{"cats":{"enc":[],"feature_segments":[],"sorted_idx":[]},"gbtree_model_param":{"num_parallel_tree":"1","num_trees":"100"},"iteration_indptr":[0,1,2,3,4,5,6,7,8,9,10,11,12,13,14,15,16,17,18,19,20,21,22,23,24,25,26,27,28,29,30,31,32,33,34,35,36,37,38,39,40,41,42,43,44,45,46,47,48,49,50,51,52,53,54,55,56,57,58,59,60,61,62,63,64,65,66,67,68,69,70,71,72,73,74,75,76,77,78,79,80,81,82,83,84,85,86,87,88,89,90,91,92,93,94,95,96,97,98,99,100],"tree_info":[0,0,0,0,0,0,0,0,0,0,0,0,0,0,0,0,0,0,0,0,0,0,0,0,0,0,0,0,0,0,0,0,0,0,0,0,0,0,0,0,0,0,0,0,0,0,0,0,0,0,0,0,0,0,0,0,0,0,0,0,0,0,0,0,0,0,0,0,0,0,0,0,0,0,0,0,0,0,0,0,0,0,0,0,0,0,0,0,0,0,0,0,0,0,0,0,0,0,0,0],"trees":[{"base_weights":[8.585447E-7,-2.573857E0,2.4734156E0,-3.92934E0,-1.1923757E0,1.4073335E0,4.055376E0,-2.347918E0,-5.31355E0,3.5710305E-1,-1.7206739E0,2.652558E0,6.128126E-1,5.4178553E0,2.7555563E0,-1.321303E0,-2.6914806E0,-1.7116911E0,-3.966026E0,1.5803072E0,-1.767252E-1,-2.4308124E0,-7.647198E-1,2.0549614E0,9.493594E-1,1.1039401E0,-3.3756968E-1,4.2142785E-1,1.6459488E0,9.0339637E-1,1.5832749E-1,-8.470281E-2,-1.5203444E0,-7.258765E-1,-2.788612E0,-5.4159653E-1,-1.3067276E0,6.3441736E-1,-1.52963E-2,-7.5782835E-1,4.2205048E-1,-1.6629229E0,-2.9928548E0,-9.9602693E-1,4.4216695E-1,9.089987E-1,1.659703E0,-2.2681296E-1,1.664721E0,4.5658892E-1,-8.3158E-1,-2.7799666E-1,3.571604E-1,-1.5292998E-1,1.14813715E-1,-5.096451E-1,6.6428095E-2,-3.2821942E-2,-2.938225E-1,-8.6940217E-1,-3.8129827E-1,4.733763E-2,-5.4220963E-2,-1.0294462E-1,-2.659581E-1,-1.8981744E-2,2.2684337E-1,1.9232083E-2,-5.2715796E-1,-3.721363E-1,-9.302043E-1,-9.217427E-2,-3.91836E-1,2.764004E-1,-8.325148E-3,1.20982364E-1,5.573111E-1,8.2676366E-2,-4.1616374E-1,6.638583E-1,2.523727E-1,3.4055457E-2,4.0008146E-1,-1.6401292E-1,-5.936215E-1],"categories":[],"categories_nodes":[],"categories_segments":[],"categories_sizes":[],"default_left":[0,0,0,0,0,0,0,0,0,0,0,0,0,0,0,0,0,0,0,0,0,0,0,0,0,0,0,0,0,0,0,0,0,0,0,0,0,0,0,0,0,0,0,0,0,0,0,0,0,0,0,0,0,0,0,0,0,0,0,0,0,0,0,0,0,0,0,0,0,0,0,0,0,0,0,0,0,0,0,0,0,0,0,0,0],"id":0,"left_children":[1,3,5,7,9,11,13,15,17,19,21,23,25,27,29,31,33,-1,35,37,39,41,43,45,-1,47,49,-1,-1,-1,51,53,55,57,59,-1,-1,-1,61,63,65,67,69,71,73,-1,75,77,79,81,83,-1,-1,-1,-1,-1,-1,-1,-1,-1,-1,-1,-1,-1,-1,-1,-1,-1,-1,-1,-1,-1,-1,-1,-1,-1,-1,-1,-1,-1,-1,-1,-1,-1,-1],"loss_changes":[2.5592197E3,3.642118E2,3.4002527E2,2.042373E2,8.165456E1,1.2105473E2,1.302909E2,1.3373657E1,4.845215E0,1.7256784E1,4.8376724E1,8.18277E0,3.6313103E1,3.0357666E0,2.8751526E1,3.3171082E0,4.6580505E0,0E0,4.767914E0,6.8540916E0,6.9308996E0,1.31497345E1,9.6527405E0,4.605858E0,0E0,3.843688E1,1.0972399E1,0E0,0E0,0E0,6.702851E0,7.9113775E-1,4.1064663E0,3.617307E-1,1.7953186E0,0E0,0E0,0E0,1.1442615E-1,2.2947645E-1,1.6692786E0,3.368801E0,4.9969482E-1,5.5790977E0,1.3765829E0,0E0,4.226307E0,9.710069E0,1.4388191E1,3.1582744E0,4.4736576E0,0E0,0E0,0E0,0E0,0E0,0E0,0E0,0E0,0E0,0E0,0E0,0E0,0E0,0E0,0E0,0E0,0E0,0E0,0E0,0E0,0E0,0E0,0E0,0E0,0E0,0E0,0E0,0E0,0E0,0E0,0E0,0E0,0E0,0E0],"parents":[2147483647,0,0,1,1,2,2,3,3,4,4,5,5,6,6,7,7,8,8,9,9,10,10,11,11,12,12,13,13,14,14,15,15,16,16,18,18,19,19,20,20,21,21,22,22,23,23,25,25,26,26,30,30,31,31,32,32,33,33,34,34,38,38,39,39,40,40,41,41,42,42,43,43,44,44,46,46,47,47,48,48,49,49,50,50],"right_children":[2,4,6,8,10,12,14,16,18,20,22,24,26,28,30,32,34,-1,36,38,40,42,44,46,-1,48,50,-1,-1,-1,52,54,56,58,60,-1,-1,-1,62,64,66,68,70,72,74,-1,76,78,80,82,84,-1,-1,-1,-1,-1,-1,-1,-1,-1,-1,-1,-1,-1,-1,-1,-1,-1,-1,-1,-1,-1,-1,-1,-1,-1,-1,-1,-1,-1,-1,-1,-1,-1,-1],"split_conditions":[1.5679428E-2,-2.5879854E-1,2.9544997E-1,3.4837615E-1,1.676141E-1,1.8687725E-1,3.5651132E-1,-2.092015E-2,-3.4995133E-1,-4.794159E-2,-8.64509E-2,1.3617736E-1,5.914461E-1,1.6592481E0,7.501528E-1,-8.085753E-2,7.8939404E0,-1.7116911E0,5.358282E-1,5.070683E-2,-1.16167046E-1,4.9742407E-1,3.5083532E-1,-2.7058406E-2,9.493594E-1,1.0790509E-1,-6.481456E-2,4.2142785E-1,1.6459488E0,9.0339637E-1,3.1918886E-1,-9.120624E-2,7.87372E1,3.8506314E-2,3.645072E-1,-5.4159653E-1,-1.3067276E0,6.3441736E-1,-7.157247E-2,-7.741245E-3,7.2765746E-4,5.668043E0,-3.6181545E-1,4.0915877E-1,3.586609E-1,9.089987E-1,2.20446E1,7.4707825E1,6.083195E1,3.337308E-1,1.2738734E-1,-2.7799666E-1,3.571604E-1,-1.5292998E-1,1.14813715E-1,-5.096451E-1,6.6428095E-2,-3.2821942E-2,-2.938225E-1,-8.6940217E-1,-3.8129827E-1,4.733763E-2,-5.4220963E-2,-1.0294462E-1,-2.659581E-1,-1.8981744E-2,2.2684337E-1,1.9232083E-2,-5.2715796E-1,-3.721363E-1,-9.302043E-1,-9.217427E-2,-3.91836E-1,2.764004E-1,-8.325148E-3,1.20982364E-1,5.573111E-1,8.2676366E-2,-4.1616374E-1,6.638583E-1,2.523727E-1,3.4055457E-2,4.0008146E-1,-1.6401292E-1,-5.936215E-1],"split_indices":[1,1,1,0,0,0,0,0,1,0,1,1,0,4,0,0,4,0,0,2,1,0,3,0,0,1,2,0,0,0,1,0,4,0,3,0,0,0,0,0,0,4,2,0,3,0,4,4,4,3,2,0,0,0,0,0,0,0,0,0,0,0,0,0,0,0,0,0,0,0,0,0,0,0,0,0,0,0,0,0,0,0,0,0,0],"split_type":[0,0,0,0,0,0,0,0,0,0,0,0,0,0,0,0,0,0,0,0,0,0,0,0,0,0,0,0,0,0,0,0,0,0,0,0,0,0,0,0,0,0,0,0,0,0,0,0,0,0,0,0,0,0,0,0,0,0,0,0,0,0,0,0,0,0,0,0,0,0,0,0,0,0,0,0,0,0,0,0,0,0,0,0,0],"sum_hessian":[4E2,1.96E2,2.04E2,9.8E1,9.8E1,1.23E2,8.1E1,4.7E1,5.1E1,2.5E1,7.3E1,4.7E1,7.6E1,3.8E1,4.3E1,1.3E1,3.4E1,3.7E1,1.4E1,7E0,1.8E1,4.1E1,3.2E1,2.4E1,2.3E1,5E1,2.6E1,1E0,3.7E1,3.9E1,4E0,2E0,1.1E1,2E0,3.2E1,3E0,1.1E1,5E0,2E0,9E0,9E0,1.9E1,2.2E1,2.7E1,5E0,5E0,1.9E1,1.5E1,3.5E1,1E1,1.6E1,2E0,2E0,1E0,1E0,1E1,1E0,1E0,1E0,2.9E1,3E0,1E0,1E0,3E0,6E0,4E0,5E0,1E0,1.8E1,2E0,2E1,9E0,1.8E1,2E0,3E0,3E0,1.6E1,1.1E1,4E0,2E1,1.5E1,8E0,2E0,1.4E1,2E0],"tree_param":{"num_deleted":"0","num_feature":"5","num_nodes":"85","size_leaf_vector":"1"}},{"base_weights":[-3.3224705E-3,-1.8381383E0,1.759907E0,-2.775814E0,-8.021516E-1,1.0076808E0,2.8759575E0,-1.5709213E0,-3.7206235E0,3.550365E-1,-1.17674E0,1.909637E0,4.3233567E-1,3.5859556E0,1.5257621E0,-1.927469E0,-1.0781413E0,-2.9578278E0,-1.2448912E0,1.1846571E0,-5.6257695E-2,-1.6711082E0,-5.4184705E-1,2.714122E0,1.6265061E0,7.841846E-1,-2.4828021E-1,2.935397E0,4.369225E0,1.7361367E0,1.2666169E-1,-4.4871998E-1,-2.2581844E0,-1.2931285E0,-8.8559344E-2,-2.1299058E-1,-3.0246925E0,2.0834255E-1,5.186332E-1,-2.7804783E-1,2.2022167E-1,-1.1354145E0,-2.0577934E0,-3.7562543E-1,-4.9591428E-1,8.516379E-1,2.2011223E-1,1.142651E0,2.1569946E0,-1.7961156E-1,1.1907555E0,3.59079E-1,-6.266726E-1,1.3656521E-1,9.0021557E-1,1.4063742E0,5.2894425E-1,8.595175E-1,1.5226825E0,-2.2239743E-1,2.8572828E-1,7.539807E-2,-2.5847256E-1,-1.2999058E-1,-6.983291E-1,9.759179E-2,-4.2223984E-1,-1.12442024E-1,6.816235E-2,-9.3906456E-1,-3.8334104E-1,-4.6087936E-2,1.1406231E-1,1.4343424E-1,-1.11897655E-1,-8.567487E-2,-4.255581E-1,-7.030919E-1,-4.1535002E-1,-1.7565374E-1,2.372737E-1,-8.811322E-2,3.9029184E-1,2.0395738E-1,6.925867E-1,5.9940483E-2,-3.1628427E-1,1.0617604E-1,4.9450848E-1,-1.9013587E-1,1.5652324E-1,5.512139E-2,-2.6704904E-1,2.6913258E-1,5.949018E-1],"categories":[],"categories_nodes":[],"categories_segments":[],"categories_sizes":[],"default_left":[0,0,0,0,0,0,0,0,0,0,0,0,0,0,0,0,0,0,0,0,0,0,0,0,0,0,0,0,0,0,0,0,0,0,0,0,0,0,0,0,0,0,0,0,0,0,0,0,0,0,0,0,0,0,0,0,0,0,0,0,0,0,0,0,0,0,0,0,0,0,0,0,0,0,0,0,0,0,0,0,0,0,0,0,0,0,0,0,0,0,0,0,0,0,0],"id":1,"left_children":[1,3,5,7,9,11,13,15,17,19,21,23,25,27,29,31,33,35,-1,37,39,41,43,45,47,49,51,53,55,57,59,61,63,65,67,-1,69,71,-1,73,-1,75,77,79,-1,-1,-1,81,83,85,87,89,91,-1,-1,-1,-1,-1,93,-1,-1,-1,-1,-1,-1,-1,-1,-1,-1,-1,-1,-1,-1,-1,-1,-1,-1,-1,-1,-1,-1,-1,-1,-1,-1,-1,-1,-1,-1,-1,-1,-1,-1,-1,-1],"loss_changes":[1.3005508E3,1.8914307E2,1.6920404E2,1.1140979E2,4.1597363E1,6.3522476E1,7.31369E1,6.179802E0,6.3792725E0,8.255881E0,2.169323E1,6.5186462E0,1.8634193E1,1.41813965E1,8.610153E0,1.1701881E1,4.565922E0,1.4598541E0,0E0,3.8896818E0,3.1839926E0,5.949341E0,5.4743576E0,6.3305664E-1,7.289131E0,2.01983E1,6.4301686E0,3.8182983E0,1.00061035E1,1.9027252E0,4.289826E0,1.9506447E0,1.6578217E0,3.788721E0,5.370966E-1,0E0,2.399292E-1,3.072494E-1,0E0,1.1834388E0,0E0,4.166254E0,9.893112E-1,7.8083234E0,0E0,0E0,0E0,5.385067E0,2.238037E0,5.520424E0,1.3202484E1,2.1072245E0,3.793664E0,0E0,0E0,0E0,0E0,0E0,5.132221E0,0E0,0E0,0E0,0E0,0E0,0E0,0E0,0E0,0E0,0E0,0E0,0E0,0E0,0E0,0E0,0E0,0E0,0E0,0E0,0E0,0E0,0E0,0E0,0E0,0E0,0E0,0E0,0E0,0E0,0E0,0E0,0E0,0E0,0E0,0E0,0E0],"parents":[2147483647,0,0,1,1,2,2,3,3,4,4,5,5,6,6,7,7,8,8,9,9,10,10,11,11,12,12,13,13,14,14,15,15,16,16,17,17,19,19,20,20,21,21,22,22,23,23,24,24,25,25,26,26,27,27,28,28,29,29,30,30,31,31,32,32,33,33,34,34,36,36,37,37,39,39,41,41,42,42,43,43,47,47,48,48,49,49,50,50,51,51,52,52,58,58],"right_children":[2,4,6,8,10,12,14,16,18,20,22,24,26,28,30,32,34,36,-1,38,40,42,44,46,48,50,52,54,56,58,60,62,64,66,68,-1,70,72,-1,74,-1,76,78,80,-1,-1,-1,82,84,86,88,90,92,-1,-1,-1,-1,-1,94,-1,-1,-1,-1,-1,-1,-1,-1,-1,-1,-1,-1,-1,-1,-1,-1,-1,-1,-1,-1,-1,-1,-1,-1,-1,-1,-1,-1,-1,-1,-1,-1,-1,-1,-1,-1],"split_conditions":[1.5679428E-2,-2.4322343E-1,2.9544997E-1,3.267928E-1,1.676141E-1,1.8687725E-1,5.170088E-1,-3.648337E-1,5.904695E-1,-4.794159E-2,-8.64509E-2,-2.6533017E-2,5.914461E-1,4.2808363E-1,7.501528E-1,1.6546226E-1,3.3746746E-1,1.0431443E-1,-1.2448912E0,2.3004167E-1,1.3377841E-1,4.9742407E-1,8.345718E1,3.7813318E-1,-1.4647095E-1,1.0790509E-1,-6.481456E-2,1.0573869E-1,4.6330222E-1,-3.216086E-1,3.1918886E-1,3.8506314E-2,-9.120624E-2,-8.085753E-2,3.5146913E-1,-2.1299058E-1,-2.832602E-1,-2.3688743E-1,5.186332E-1,2.8652427E0,2.2022167E-1,-2.0127442E-1,6.8056476E-1,7.0943886E1,-4.9591428E-1,8.516379E-1,2.2011223E-1,1.2053762E-1,3.0302133E-2,7.4707825E1,-2.1138993E-1,6.180846E0,1.7070837E1,1.3656521E-1,9.0021557E-1,1.4063742E0,5.2894425E-1,8.595175E-1,-3.8234275E-2,-2.2239743E-1,2.8572828E-1,7.539807E-2,-2.5847256E-1,-1.2999058E-1,-6.983291E-1,9.759179E-2,-4.2223984E-1,-1.12442024E-1,6.816235E-2,-9.3906456E-1,-3.8334104E-1,-4.6087936E-2,1.1406231E-1,1.4343424E-1,-1.11897655E-1,-8.567487E-2,-4.255581E-1,-7.030919E-1,-4.1535002E-1,-1.7565374E-1,2.372737E-1,-8.811322E-2,3.9029184E-1,2.0395738E-1,6.925867E-1,5.9940483E-2,-3.1628427E-1,1.0617604E-1,4.9450848E-1,-1.9013587E-1,1.5652324E-1,5.512139E-2,-2.6704904E-1,2.6913258E-1,5.949018E-1],"split_indices":[1,1,1,0,0,0,0,1,0,0,1,0,0,1,0,3,3,3,0,3,0,0,4,3,2,1,2,3,0,2,1,0,0,0,3,0,1,1,0,4,0,1,0,4,0,0,0,3,1,4,2,4,4,0,0,0,0,0,2,0,0,0,0,0,0,0,0,0,0,0,0,0,0,0,0,0,0,0,0,0,0,0,0,0,0,0,0,0,0,0,0,0,0,0,0],"split_type":[0,0,0,0,0,0,0,0,0,0,0,0,0,0,0,0,0,0,0,0,0,0,0,0,0,0,0,0,0,0,0,0,0,0,0,0,0,0,0,0,0,0,0,0,0,0,0,0,0,0,0,0,0,0,0,0,0,0,0,0,0,0,0,0,0,0,0,0,0,0,0,0,0,0,0,0,0,0,0,0,0,0,0,0,0,0,0,0,0,0,0,0,0,0,0],"sum_hessian":[4E2,1.96E2,2.04E2,1.02E2,9.4E1,1.23E2,8.1E1,4.6E1,5.6E1,2.3E1,7.1E1,4.7E1,7.6E1,5.2E1,2.9E1,2.5E1,2.1E1,2.3E1,3.3E1,7E0,1.6E1,3.9E1,3.2E1,1E1,3.7E1,5E1,2.6E1,3.1E1,2.1E1,2.5E1,4E0,5E0,2E1,1.7E1,4E0,1E0,2.2E1,3E0,4E0,1.3E1,3E0,1.8E1,2.1E1,2.9E1,3E0,9E0,1E0,2.1E1,1.6E1,1.5E1,3.5E1,1E1,1.6E1,1E0,3E1,1.8E1,3E0,2E0,2.3E1,2E0,2E0,2E0,3E0,1E0,1.9E1,1E0,1.6E1,2E0,2E0,2E1,2E0,1E0,2E0,1E0,1.2E1,5E0,1.3E1,1.3E1,8E0,2.5E1,4E0,2E0,1.9E1,2E0,1.4E1,1.1E1,4E0,1.3E1,2.2E1,1E0,9E0,4E0,1.2E1,1.1E1,1.2E1],"tree_param":{"num_deleted":"0","num_feature":"5","num_nodes":"95","size_leaf_vector":"1"}},{"base_weights":[2.018586E-3,-1.3140379E0,1.266707E0,-1.8966951E0,-4.3819314E-1,7.2448367E-1,2.0712068E0,-1.1448274E0,-2.6547508E0,3.3432752E-1,-7.188247E-1,1.3840474E0,3.0391818E-1,2.8959897E0,1.4566388E0,-9.230552E-1,-1.5533078E0,-3.0709944E0,-2.0990975E0,1.068836E0,-7.915378E-3,-9.6269804E-1,-5.968464E-2,1.0085988E0,1.7174711E0,-7.0991236E-1,4.658319E-1,2.243032E0,3.5735343E0,1.574859E0,1.0132904E-1,-1.3582723E0,-4.6566346E-1,-1.6413208E0,1.784134E-2,-6.934249E-1,-1.183475E0,-1.2427595E0,-6.976094E-1,3.6638346E-1,2.3127366E-2,-4.963983E-1,2.5924942E-1,-7.5029725E-1,-1.7981646E0,2.344124E-1,-2.2391751E-1,1.171165E0,-1.376648E-1,1.9039904E0,6.2789994E-1,-1.3123509E0,-1.7818315E-1,-1.5838966E-1,8.179181E-1,1.5761033E-1,6.917354E-1,5.4502046E-1,1.1584018E0,1.8601041E0,1.2477652E0,-1.7791806E-1,2.2858258E-1,-1.0338488E-1,-4.9605045E-1,8.612843E-2,-1.6658822E-1,-5.7136637E-1,-2.753952E-1,-4.252144E-1,-1.4377882E-1,-6.62199E-2,-1.7371431E-1,-6.465893E-2,1.1661111E-1,-3.1067613E-1,-2.3301214E-3,-2.0529023E-1,-6.166208E-1,-1.03902675E-1,2.2350426E-1,5.4347384E-1,2.628733E-1,7.783556E-2,-1.06956296E-1,5.965337E-1,4.4900894E-2,3.591063E-1,-2.4728766E-1,1.3414479E-2,-4.988388E-1,1.1848717E-1,-1.4592923E-1,4.7120746E-2,-1.7224851E-1,2.829035E-1,-3.492996E-1,1.16080575E-1,5.735489E-1,-7.118082E-2,3.967944E-1],"categories":[],"categories_nodes":[],"categories_segments":[],"categories_sizes":[],"default_left":[0,0,0,0,0,0,0,0,0,0,0,0,0,0,0,0,0,0,0,0,0,0,0,0,0,0,0,0,0,0,0,0,0,0,0,0,0,0,0,0,0,0,0,0,0,0,0,0,0,0,0,0,0,0,0,0,0,0,0,0,0,0,0,0,0,0,0,0,0,0,0,0,0,0,0,0,0,0,0,0,0,0,0,0,0,0,0,0,0,0,0,0,0,0,0,0,0,0,0,0,0],"id":2,"left_children":[1,3,5,7,9,11,13,15,17,19,21,23,25,27,29,31,33,35,37,39,41,43,45,47,49,51,53,55,57,59,61,63,65,67,-1,-1,-1,69,-1,-1,-1,71,73,75,77,-1,79,81,83,85,87,89,91,93,95,-1,-1,-1,-1,97,99,-1,-1,-1,-1,-1,-1,-1,-1,-1,-1,-1,-1,-1,-1,-1,-1,-1,-1,-1,-1,-1,-1,-1,-1,-1,-1,-1,-1,-1,-1,-1,-1,-1,-1,-1,-1,-1,-1,-1,-1],"loss_changes":[6.690894E2,9.9701355E1,8.7924225E1,6.421579E1,1.7583817E1,3.3975693E1,3.734616E1,4.0921707E0,6.968384E0,5.538827E0,9.426601E0,4.2765656E0,1.2970485E1,7.0263367E0,7.6914444E0,7.728222E0,2.9365234E0,1.1459839E1,2.5354385E0,9.641361E-1,2.216778E0,6.281357E0,2.5231662E0,4.8198185E0,3.6819077E0,3.289836E0,1.4854796E1,9.443741E-1,5.6921387E-1,1.8776093E0,2.7454896E0,5.714653E0,1.643765E0,1.8693771E0,0E0,0E0,0E0,3.8728714E-1,0E0,0E0,0E0,8.8864565E-3,7.598612E-1,7.618063E0,8.8570976E-1,0E0,2.0373478E0,2.5677872E0,4.4014573E-1,2.6656265E0,5.119061E0,2.452238E0,1.4288032E0,3.3691568E0,1.176054E1,0E0,0E0,0E0,0E0,9.3665314E-1,2.982708E0,0E0,0E0,0E0,0E0,0E0,0E0,0E0,0E0,0E0,0E0,0E0,0E0,0E0,0E0,0E0,0E0,0E0,0E0,0E0,0E0,0E0,0E0,0E0,0E0,0E0,0E0,0E0,0E0,0E0,0E0,0E0,0E0,0E0,0E0,0E0,0E0,0E0,0E0,0E0,0E0],"parents":[2147483647,0,0,1,1,2,2,3,3,4,4,5,5,6,6,7,7,8,8,9,9,10,10,11,11,12,12,13,13,14,14,15,15,16,16,17,17,18,18,19,19,20,20,21,21,22,22,23,23,24,24,25,25,26,26,27,27,28,28,29,29,30,30,31,31,32,32,33,33,37,37,41,41,42,42,43,43,44,44,46,46,47,47,48,48,49,49,50,50,51,51,52,52,53,53,54,54,59,59,60,60],"right_children":[2,4,6,8,10,12,14,16,18,20,22,24,26,28,30,32,34,36,38,40,42,44,46,48,50,52,54,56,58,60,62,64,66,68,-1,-1,-1,70,-1,-1,-1,72,74,76,78,-1,80,82,84,86,88,90,92,94,96,-1,-1,-1,-1,98,100,-1,-1,-1,-1,-1,-1,-1,-1,-1,-1,-1,-1,-1,-1,-1,-1,-1,-1,-1,-1,-1,-1,-1,-1,-1,-1,-1,-1,-1,-1,-1,-1,-1,-1,-1,-1,-1,-1,-1,-1],"split_conditions":[1.5679428E-2,-1.9532086E-1,2.9544997E-1,3.900402E-1,1.676141E-1,1.8687725E-1,3.0969813E-1,2.316737E-1,-3.7160572E-1,-4.794159E-2,-2.3981871E-2,1.3617736E-1,1.352654E-1,4.2808363E-1,7.501528E-1,-3.648337E-1,3.760434E-1,-1.17227696E-1,5.358282E-1,5.070683E-2,-1.19376704E-1,6.897148E-1,-1.902711E-2,1.23585686E-1,8.979646E1,1.4581081E-1,1.1293958E-1,-7.265165E-2,1.7349606E1,5.205185E-1,3.1918886E-1,1.6546226E-1,-3.4758398E-1,5.7789112E1,1.784134E-2,-6.934249E-1,-1.183475E0,5.2767825E-1,-6.976094E-1,3.6638346E-1,2.3127366E-2,-7.741245E-3,-3.4797803E-2,5.4986855E1,-1.9271004E-1,2.344124E-1,8.173053E1,1.2667213E-2,-8.00888E-2,1.330422E-1,5.0330553E-2,3.5827685E-2,-9.005642E-2,2.9485267E-1,9.303984E1,1.5761033E-1,6.917354E-1,5.4502046E-1,1.1584018E0,1.0573869E-1,5.342127E-1,-1.7791806E-1,2.2858258E-1,-1.0338488E-1,-4.9605045E-1,8.612843E-2,-1.6658822E-1,-5.7136637E-1,-2.753952E-1,-4.252144E-1,-1.4377882E-1,-6.62199E-2,-1.7371431E-1,-6.465893E-2,1.1661111E-1,-3.1067613E-1,-2.3301214E-3,-2.0529023E-1,-6.166208E-1,-1.03902675E-1,2.2350426E-1,5.4347384E-1,2.628733E-1,7.783556E-2,-1.06956296E-1,5.965337E-1,4.4900894E-2,3.591063E-1,-2.4728766E-1,1.3414479E-2,-4.988388E-1,1.1848717E-1,-1.4592923E-1,4.7120746E-2,-1.7224851E-1,2.829035E-1,-3.492996E-1,1.16080575E-1,5.735489E-1,-7.118082E-2,3.967944E-1],"split_indices":[1,1,1,0,0,0,0,0,1,0,1,1,3,1,0,1,0,2,0,2,1,0,1,1,4,1,1,0,4,0,1,3,1,4,0,0,0,0,0,0,0,0,0,4,1,0,4,0,0,2,0,1,2,3,4,0,0,0,0,3,0,0,0,0,0,0,0,0,0,0,0,0,0,0,0,0,0,0,0,0,0,0,0,0,0,0,0,0,0,0,0,0,0,0,0,0,0,0,0,0,0],"split_type":[0,0,0,0,0,0,0,0,0,0,0,0,0,0,0,0,0,0,0,0,0,0,0,0,0,0,0,0,0,0,0,0,0,0,0,0,0,0,0,0,0,0,0,0,0,0,0,0,0,0,0,0,0,0,0,0,0,0,0,0,0,0,0,0,0,0,0,0,0,0,0,0,0,0,0,0,0,0,0,0,0,0,0,0,0,0,0,0,0,0,0,0,0,0,0,0,0,0,0,0,0],"sum_hessian":[4E2,1.96E2,2.04E2,1.17E2,7.9E1,1.23E2,8.1E1,6E1,5.7E1,2.1E1,5.8E1,4.7E1,7.6E1,3.3E1,4.8E1,4.1E1,1.9E1,3E1,2.7E1,6E0,1.5E1,4.2E1,1.6E1,2.4E1,2.3E1,1E1,6.6E1,1.9E1,1.4E1,4.4E1,4E0,2E1,2.1E1,1.8E1,1E0,1.8E1,1.2E1,7E0,2E1,5E0,1E0,5E0,1E1,3.5E1,7E0,2E0,1.4E1,2.1E1,3E0,1.9E1,4E0,4E0,6E0,2.4E1,4.2E1,1E0,1.8E1,3E0,1.1E1,2.1E1,2.3E1,2E0,2E0,5E0,1.5E1,2E0,1.9E1,1.2E1,6E0,5E0,2E0,2E0,3E0,2E0,8E0,2.5E1,1E1,2E0,5E0,1.3E1,1E0,5E0,1.6E1,1E0,2E0,1.8E1,1E0,3E0,1E0,1E0,3E0,2E0,4E0,1.4E1,1E1,4E1,2E0,1E0,2E1,1E0,2.2E1],"tree_param":{"num_deleted":"0","num_feature":"5","num_nodes":"101","size_leaf_vector":"1"}},{"base_weights":[-5.494757E-4,-1.030918E0,8.348869E-1,-3.6462474E-1,-1.3865747E0,4.0131396E-1,1.4546313E0,-7.6605344E-1,1.1586291E-1,-2.0048022E0,-9.8648155E-1,9.627244E-1,7.9560876E-2,1.8721559E0,6.996001E-1,-8.8374746E-1,1.16860196E-1,5.544626E-1,-1.6724546E-1,-1.3290521E0,-2.2983754E0,-1.222792E0,-5.385899E-1,4.6375725E-1,1.1348048E0,-3.2655618E-1,2.6406255E-1,2.314867E0,1.5583234E0,5.7382727E-1,5.2049595E-1,7.5442635E-2,-9.525E-1,1.4264674E-1,-1.9764835E-1,2.8773582E-1,3.130082E-1,-4.1496992E-1,2.252469E-1,-1.4215297E0,8.716679E-3,-1.2092003E0,-2.4678423E0,-8.096428E-1,-1.3735328E0,-8.894613E-1,-2.5878906E-2,-5.982671E-1,8.0778813E-1,1.2605997E0,1.2791519E-1,2.1342103E-1,-7.111293E-1,8.0637616E-1,-8.018813E-2,1.5743538E0,2.8007653E0,9.866839E-2,1.5833383E0,1.3737749E-1,1.0404001E0,-3.6084652E-2,7.003384E-2,-3.0839974E-1,-6.7089275E-2,1.6457969E-1,-3.558898E-2,-2.4356788E-2,-2.205657E-1,-2.5477982E-3,1.383329E-1,-1.0841561E-1,-4.4143233E-1,-4.2944232E-1,-1.4674474E-2,-7.69618E-1,-2.692015E-1,-3.8318247E-1,-2.7821487E-2,-5.941866E-1,-3.4958032E-1,-4.9209547E-1,-8.24746E-2,2.1056329E-1,-3.5553408E-1,-2.7538455E-1,5.4116536E-2,2.989486E-1,-1.6189241E-1,4.6941155E-1,2.86212E-1,1.5306544E-1,-2.101945E-1,2.3364107E-1,-9.050438E-2,2.5267983E-2,-2.703456E-1,5.830942E-2,3.7866095E-1,2.5204306E-3,-3.2610112E-1,1.7942257E-1,5.174556E-1,4.2239073E-1,9.32577E-1,4.8118287E-1,1.2932654E-1,1.625091E-1,-6.177547E-2,1.521523E-1,3.66311E-1],"categories":[],"categories_nodes":[],"categories_segments":[],"categories_sizes":[],"default_left":[0,0,0,0,0,0,0,0,0,0,0,0,0,0,0,0,0,0,0,0,0,0,0,0,0,0,0,0,0,0,0,0,0,0,0,0,0,0,0,0,0,0,0,0,0,0,0,0,0,0,0,0,0,0,0,0,0,0,0,0,0,0,0,0,0,0,0,0,0,0,0,0,0,0,0,0,0,0,0,0,0,0,0,0,0,0,0,0,0,0,0,0,0,0,0,0,0,0,0,0,0,0,0,0,0,0,0,0,0,0,0],"id":3,"left_children":[1,3,5,7,9,11,13,15,17,19,21,23,25,27,29,31,33,35,37,39,41,43,45,47,49,51,53,55,57,-1,59,61,63,-1,-1,-1,65,67,69,71,-1,73,75,77,79,81,83,85,87,89,91,93,95,97,99,101,103,-1,105,107,109,-1,-1,-1,-1,-1,-1,-1,-1,-1,-1,-1,-1,-1,-1,-1,-1,-1,-1,-1,-1,-1,-1,-1,-1,-1,-1,-1,-1,-1,-1,-1,-1,-1,-1,-1,-1,-1,-1,-1,-1,-1,-1,-1,-1,-1,-1,-1,-1,-1,-1],"loss_changes":[3.460444E2,4.2149338E1,5.906862E1,1.2433176E1,2.6962082E1,2.3767296E1,2.7377472E1,3.7402534E0,3.8178685E0,5.872528E0,7.067848E0,3.5951233E0,6.4552197E0,4.4510345E0,6.3919907E0,2.1162071E0,1.7041863E0,8.722615E-1,1.9408398E0,2.0508137E0,2.5532837E0,1.8150177E0,4.8341637E0,5.598441E0,4.271904E0,5.758609E0,1.1079481E1,3.5065155E0,6.1714935E-1,0E0,6.031802E0,1.2085501E-1,1.3659477E0,0E0,0E0,0E0,9.8028976E-1,1.2230237E0,4.449596E-1,2.6194E-1,0E0,1.4773874E0,1.5280762E0,4.910261E0,1.864418E0,6.932028E0,1.0955491E1,1.1612737E0,3.3347154E0,1.397232E0,1.9412949E0,3.729708E0,2.494071E0,6.171012E0,3.3092866E0,5.846157E-1,7.680435E-1,0E0,1.6325378E-1,2.748767E0,6.32884E-1,0E0,0E0,0E0,0E0,0E0,0E0,0E0,0E0,0E0,0E0,0E0,0E0,0E0,0E0,0E0,0E0,0E0,0E0,0E0,0E0,0E0,0E0,0E0,0E0,0E0,0E0,0E0,0E0,0E0,0E0,0E0,0E0,0E0,0E0,0E0,0E0,0E0,0E0,0E0,0E0,0E0,0E0,0E0,0E0,0E0,0E0,0E0,0E0,0E0,0E0],"parents":[2147483647,0,0,1,1,2,2,3,3,4,4,5,5,6,6,7,7,8,8,9,9,10,10,11,11,12,12,13,13,14,14,15,15,16,16,17,17,18,18,19,19,20,20,21,21,22,22,23,23,24,24,25,25,26,26,27,27,28,28,30,30,31,31,32,32,36,36,37,37,38,38,39,39,41,41,42,42,43,43,44,44,45,45,46,46,47,47,48,48,49,49,50,50,51,51,52,52,53,53,54,54,55,55,56,56,58,58,59,59,60,60],"right_children":[2,4,6,8,10,12,14,16,18,20,22,24,26,28,30,32,34,36,38,40,42,44,46,48,50,52,54,56,58,-1,60,62,64,-1,-1,-1,66,68,70,72,-1,74,76,78,80,82,84,86,88,90,92,94,96,98,100,102,104,-1,106,108,110,-1,-1,-1,-1,-1,-1,-1,-1,-1,-1,-1,-1,-1,-1,-1,-1,-1,-1,-1,-1,-1,-1,-1,-1,-1,-1,-1,-1,-1,-1,-1,-1,-1,-1,-1,-1,-1,-1,-1,-1,-1,-1,-1,-1,-1,-1,-1,-1,-1,-1],"split_conditions":[-2.3981871E-2,2.316737E-1,2.807616E-1,-2.593073E-1,-3.4758398E-1,1.8687725E-1,5.170088E-1,9.32619E-2,-1.7661847E-2,5.08862E-1,-1.3776456E-1,6.2296815E-2,2.1730986E-1,1.4914502E-1,-3.216086E-1,-8.085753E-2,-2.8479812E-1,-7.265165E-2,4.6806904E1,8.345718E1,-2.5181273E-1,4.366429E-1,5.5704052E1,-2.8880188E-1,8.979646E1,3.978657E1,2.9785323E-1,4.2808363E-1,1.0573869E-1,5.7382727E-1,-8.102326E-3,-9.120624E-2,9.385298E1,1.4264674E-1,-1.9764835E-1,2.8773582E-1,-3.0821186E-2,-4.6761088E-2,-7.418525E-2,1.5849257E-1,8.716679E-3,-2.8234136E-1,7.7199006E-1,3.4837615E-1,1.0587432E1,2.0515616E-1,7.5117714E1,1.0199651E-1,5.4226514E-2,6.17148E-2,-1.7661847E-2,4.8650014E-1,1.116814E-1,1.1098099E-1,9.091753E1,1.7349606E1,1.7349606E1,9.866839E-2,9.791515E1,-1.680757E-1,2.0632748E-1,-3.6084652E-2,7.003384E-2,-3.0839974E-1,-6.7089275E-2,1.6457969E-1,-3.558898E-2,-2.4356788E-2,-2.205657E-1,-2.5477982E-3,1.383329E-1,-1.0841561E-1,-4.4143233E-1,-4.2944232E-1,-1.4674474E-2,-7.69618E-1,-2.692015E-1,-3.8318247E-1,-2.7821487E-2,-5.941866E-1,-3.4958032E-1,-4.9209547E-1,-8.24746E-2,2.1056329E-1,-3.5553408E-1,-2.7538455E-1,5.4116536E-2,2.989486E-1,-1.6189241E-1,4.6941155E-1,2.86212E-1,1.5306544E-1,-2.101945E-1,2.3364107E-1,-9.050438E-2,2.5267983E-2,-2.703456E-1,5.830942E-2,3.7866095E-1,2.5204306E-3,-3.2610112E-1,1.7942257E-1,5.174556E-1,4.2239073E-1,9.32577E-1,4.8118287E-1,1.2932654E-1,1.625091E-1,-6.177547E-2,1.521523E-1,3.66311E-1],"split_indices":[1,0,1,1,1,0,0,2,0,0,1,1,3,0,2,0,1,0,4,4,2,0,4,2,4,4,3,1,3,0,2,0,4,0,0,0,2,2,2,3,0,2,0,0,4,3,4,0,1,0,0,0,3,1,4,4,4,0,4,2,3,0,0,0,0,0,0,0,0,0,0,0,0,0,0,0,0,0,0,0,0,0,0,0,0,0,0,0,0,0,0,0,0,0,0,0,0,0,0,0,0,0,0,0,0,0,0,0,0,0,0],"split_type":[0,0,0,0,0,0,0,0,0,0,0,0,0,0,0,0,0,0,0,0,0,0,0,0,0,0,0,0,0,0,0,0,0,0,0,0,0,0,0,0,0,0,0,0,0,0,0,0,0,0,0,0,0,0,0,0,0,0,0,0,0,0,0,0,0,0,0,0,0,0,0,0,0,0,0,0,0,0,0,0,0,0,0,0,0,0,0,0,0,0,0,0,0,0,0,0,0,0,0,0,0,0,0,0,0,0,0,0,0,0,0],"sum_hessian":[4E2,1.79E2,2.21E2,6.3E1,1.16E2,1.31E2,9E1,3.4E1,2.9E1,4.4E1,7.2E1,4.7E1,8.4E1,5.7E1,3.3E1,3E1,4E0,1.1E1,1.8E1,1.5E1,2.9E1,4.6E1,2.6E1,1.3E1,3.4E1,2.6E1,5.8E1,2.1E1,3.6E1,3E0,3E1,2E0,2.8E1,3E0,1E0,3E0,8E0,1.1E1,7E0,1.4E1,1E0,5E0,2.4E1,1.4E1,3.2E1,1.5E1,1.1E1,3E0,1E1,3E1,4E0,1.1E1,1.5E1,2.2E1,3.6E1,1E1,1.1E1,1E0,3.5E1,1.8E1,1.2E1,1E0,1E0,2.5E1,3E0,5E0,3E0,6E0,5E0,4E0,3E0,1E0,1.3E1,4E0,1E0,2.2E1,2E0,8E0,6E0,6E0,2.6E1,6E0,9E0,7E0,4E0,2E0,1E0,9E0,1E0,1.3E1,1.7E1,3E0,1E0,5E0,6E0,3E0,1.2E1,1E1,1.2E1,3.4E1,2E0,2E0,8E0,3E0,8E0,3.4E1,1E0,8E0,1E1,4E0,8E0],"tree_param":{"num_deleted":"0","num_feature":"5","num_nodes":"111","size_leaf_vector":"1"}},{"base_weights":[5.940725E-4,-7.1795183E-1,6.3183725E-1,-1.2170016E0,-4.5056325E-1,2.655577E-1,1.031423E0,-9.6842057E-1,-1.9810436E0,2.46947E-2,-6.452676E-1,5.309704E-1,-3.168797E-1,1.3817451E0,5.18615E-1,-2.1005276E-1,-1.0648685E0,-2.1869493E0,-2.6041976E-1,6.7402613E-1,-7.443717E-2,-8.427956E-1,-3.3653837E-1,1.0245734E0,3.8706356E-1,-6.9287145E-1,-1.4561859E-1,1.7431217E0,1.109994E0,6.253664E-1,-4.1776887E-1,-5.169811E-1,1.1145363E-1,-4.2781857E-1,-1.1519064E0,-1.327652E-1,-2.305299E0,5.9528735E-2,2.2299543E-1,-2.4612951E-1,1.7615454E-1,-8.946437E-1,-1.6612473E-1,-9.557424E-1,-1.8083948E-1,1.1208153E0,-7.729426E-2,9.513692E-2,6.095459E-1,-1.9433355E-1,-2.5665945E-1,1.0737615E0,-3.5135344E-1,5.6350425E-2,1.8025762E0,5.5856246E-1,1.1599082E0,7.503912E-1,-1.8733501E-1,-2.3126236E-1,1.4919806E-1,-3.0671883E-2,-1.7853199E-1,2.2559166E-2,-1.5725622E-1,-3.5630938E-1,3.1225778E-2,-8.2310194E-1,-3.6915457E-1,-9.285492E-2,6.4870454E-2,1.1703751E-1,-2.806443E-2,-8.880055E-2,-2.8238356E-1,1.5407774E-1,-2.371401E-1,-3.9677393E-1,1.867922E-1,-1.3107334E-1,9.0355575E-2,7.091904E-3,3.577153E-1,-5.2652907E-2,2.3810764E-1,-1.7503604E-1,2.0985879E-1,7.612038E-3,-8.280812E-2,4.1435415E-1,2.2725679E-2,6.1959367E-2,-1.553386E-1,2.9000437E-1,5.9431946E-1,2.274562E-1,-3.5990525E-2,3.572598E-1,1.3601208E-1,3.7853518E-1,1.7132255E-1,-1.2384696E-1,5.2728277E-2],"categories":[],"categories_nodes":[],"categories_segments":[],"categories_sizes":[],"default_left":[0,0,0,0,0,0,0,0,0,0,0,0,0,0,0,0,0,0,0,0,0,0,0,0,0,0,0,0,0,0,0,0,0,0,0,0,0,0,0,0,0,0,0,0,0,0,0,0,0,0,0,0,0,0,0,0,0,0,0,0,0,0,0,0,0,0,0,0,0,0,0,0,0,0,0,0,0,0,0,0,0,0,0,0,0,0,0,0,0,0,0,0,0,0,0,0,0,0,0,0,0,0,0],"id":4,"left_children":[1,3,5,7,9,11,13,15,17,19,21,23,25,27,29,31,33,35,-1,37,39,41,43,45,47,49,51,53,55,57,59,61,-1,63,65,-1,67,-1,-1,69,71,73,75,77,79,81,-1,83,85,87,-1,89,91,-1,93,95,97,99,101,-1,-1,-1,-1,-1,-1,-1,-1,-1,-1,-1,-1,-1,-1,-1,-1,-1,-1,-1,-1,-1,-1,-1,-1,-1,-1,-1,-1,-1,-1,-1,-1,-1,-1,-1,-1,-1,-1,-1,-1,-1,-1,-1,-1],"loss_changes":[1.8233809E2,2.4538422E1,3.1047157E1,1.0426727E1,1.1490248E1,1.7636501E1,1.7607506E1,3.5066109E0,1.5391083E0,2.4318416E0,5.08284E0,5.1439877E0,2.217244E0,3.957405E0,4.5595512E0,1.441556E0,2.0023346E0,1.4571762E0,0E0,1.7279387E-2,1.4631714E0,1.7108345E0,3.297902E0,2.386631E0,3.9688177E0,7.257557E-1,6.8998632E0,1.880661E0,3.7051392E-1,4.103277E0,1.999004E0,1.0116601E-1,0E0,3.787427E-1,1.8768234E0,0E0,1.8065987E0,0E0,0E0,6.5308464E-1,8.4441304E-1,1.0893402E0,2.5278583E0,4.87656E0,3.8345773E0,1.2281952E0,0E0,5.4330254E0,4.1653986E0,7.8798294E-2,0E0,1.1226006E0,2.2426147E0,0E0,1.5164948E0,7.682166E-1,1.8189621E-1,2.3972588E0,5.638012E-1,0E0,0E0,0E0,0E0,0E0,0E0,0E0,0E0,0E0,0E0,0E0,0E0,0E0,0E0,0E0,0E0,0E0,0E0,0E0,0E0,0E0,0E0,0E0,0E0,0E0,0E0,0E0,0E0,0E0,0E0,0E0,0E0,0E0,0E0,0E0,0E0,0E0,0E0,0E0,0E0,0E0,0E0,0E0,0E0],"parents":[2147483647,0,0,1,1,2,2,3,3,4,4,5,5,6,6,7,7,8,8,9,9,10,10,11,11,12,12,13,13,14,14,15,15,16,16,17,17,19,19,20,20,21,21,22,22,23,23,24,24,25,25,26,26,27,27,28,28,29,29,30,30,31,31,33,33,34,34,36,36,39,39,40,40,41,41,42,42,43,43,44,44,45,45,47,47,48,48,49,49,51,51,52,52,54,54,55,55,56,56,57,57,58,58],"right_children":[2,4,6,8,10,12,14,16,18,20,22,24,26,28,30,32,34,36,-1,38,40,42,44,46,48,50,52,54,56,58,60,62,-1,64,66,-1,68,-1,-1,70,72,74,76,78,80,82,-1,84,86,88,-1,90,92,-1,94,96,98,100,102,-1,-1,-1,-1,-1,-1,-1,-1,-1,-1,-1,-1,-1,-1,-1,-1,-1,-1,-1,-1,-1,-1,-1,-1,-1,-1,-1,-1,-1,-1,-1,-1,-1,-1,-1,-1,-1,-1,-1,-1,-1,-1,-1,-1],"split_conditions":[-1.1758863E-2,-3.4995133E-1,2.5527042E-1,6.2155527E-1,1.676141E-1,4.7060513E-1,5.170088E-1,-2.1711916E-2,7.7199006E-1,-7.265165E-2,-1.3776456E-1,2.568613E-2,-2.1138993E-1,1.4914502E-1,9.303984E1,-4.1179292E-2,1.5849257E-1,-4.8789153E-1,-2.6041976E-1,-8.085753E-2,-1.398636E-1,3.6476797E-1,-3.3518454E-1,9.58118E1,1.0790509E-1,1.0348766E-1,-1.6947597E-1,-7.265165E-2,1.1876945E-1,7.4925435E-1,7.3497707E-1,-9.120624E-2,1.1145363E-1,3.8506314E-2,-3.628903E-1,-1.327652E-1,-4.044647E-1,5.9528735E-2,2.2299543E-1,1.353815E-1,-3.0821186E-2,-3.6181545E-1,6.978328E1,6.741102E-1,5.5704052E1,1.8078767E-2,-7.729426E-2,7.571265E-2,-3.6931878E-1,3.5827685E-2,-2.5665945E-1,5.598017E-1,1.3545954E1,5.6350425E-2,1.7349606E1,3.6779654E-1,9.385298E1,-2.162119E-1,3.1918886E-1,-2.3126236E-1,1.4919806E-1,-3.0671883E-2,-1.7853199E-1,2.2559166E-2,-1.5725622E-1,-3.5630938E-1,3.1225778E-2,-8.2310194E-1,-3.6915457E-1,-9.285492E-2,6.4870454E-2,1.1703751E-1,-2.806443E-2,-8.880055E-2,-2.8238356E-1,1.5407774E-1,-2.371401E-1,-3.9677393E-1,1.867922E-1,-1.3107334E-1,9.0355575E-2,7.091904E-3,3.577153E-1,-5.2652907E-2,2.3810764E-1,-1.7503604E-1,2.0985879E-1,7.612038E-3,-8.280812E-2,4.1435415E-1,2.2725679E-2,6.1959367E-2,-1.553386E-1,2.9000437E-1,5.9431946E-1,2.274562E-1,-3.5990525E-2,3.572598E-1,1.3601208E-1,3.7853518E-1,1.7132255E-1,-1.2384696E-1,5.2728277E-2],"split_indices":[1,1,1,0,0,0,0,0,0,0,1,0,2,0,4,0,3,1,0,0,1,3,2,4,1,1,2,0,3,0,0,0,0,0,1,0,1,0,0,2,2,2,4,0,4,1,0,2,2,1,0,0,4,0,4,0,4,2,1,0,0,0,0,0,0,0,0,0,0,0,0,0,0,0,0,0,0,0,0,0,0,0,0,0,0,0,0,0,0,0,0,0,0,0,0,0,0,0,0,0,0,0,0],"split_type":[0,0,0,0,0,0,0,0,0,0,0,0,0,0,0,0,0,0,0,0,0,0,0,0,0,0,0,0,0,0,0,0,0,0,0,0,0,0,0,0,0,0,0,0,0,0,0,0,0,0,0,0,0,0,0,0,0,0,0,0,0,0,0,0,0,0,0,0,0,0,0,0,0,0,0,0,0,0,0,0,0,0,0,0,0,0,0,0,0,0,0,0,0,0,0,0,0,0,0,0,0,0,0],"sum_hessian":[4E2,1.87E2,2.13E2,6.4E1,1.23E2,1.12E2,1.01E2,5E1,1.4E1,3.6E1,8.7E1,7.7E1,3.5E1,5.9E1,4.2E1,6E0,4.4E1,1.1E1,3E0,4E0,3.2E1,5.2E1,3.5E1,1.6E1,6.1E1,1E1,2.5E1,2.3E1,3.6E1,3.8E1,4E0,4E0,2E0,6E0,3.8E1,1E0,1E1,1E0,3E0,1.9E1,1.3E1,4.8E1,4E0,6E0,2.9E1,1.5E1,1E0,2.7E1,3.4E1,3E0,7E0,3E0,2.2E1,1E0,2.2E1,4E0,3.2E1,3.3E1,5E0,3E0,1E0,1E0,3E0,1E0,5E0,3.7E1,1E0,6E0,4E0,1.7E1,2E0,7E0,6E0,4E0,4.4E1,2E0,2E0,5E0,1E0,1.9E1,1E1,1E0,1.4E1,2E1,7E0,2E0,3.2E1,1E0,2E0,2E0,1E0,5E0,1.7E1,5E0,1.7E1,3E0,1E0,3E1,2E0,7E0,2.6E1,3E0,2E0],"tree_param":{"num_deleted":"0","num_feature":"5","num_nodes":"103","size_leaf_vector":"1"}},{"base_weights":[5.089077E-4,-5.3788376E-1,4.3704122E-1,-2.8436178E-1,-8.733176E-1,2.66341E-1,9.151187E-1,-4.903655E-1,-5.2070428E-2,-1.0843632E0,-4.1763708E-1,4.2279473E-1,-5.4253664E-2,1.2644354E0,5.222008E-1,-9.380796E-1,-3.941997E-1,4.7985005E-1,-1.4982143E-1,-1.7060757E0,-8.5519767E-1,5.815387E-1,-5.732487E-1,2.1614526E-1,6.2927157E-1,-2.1845067E-1,2.019714E-1,1.5340003E0,9.680622E-1,3.7674597E-1,3.892517E-1,-5.8428958E-2,-3.0199465E-1,-2.77228E-1,-7.992722E-1,1.3719606E-1,1.9740097E-1,-2.6753575E-1,1.4240661E-1,-2.1004058E-1,-5.813533E-1,-4.1424787E-1,-9.883726E-1,3.9030936E-2,2.0659485E-1,-6.8958056E-1,4.3215752E-1,3.1956056E-1,-2.4536966E-1,5.163939E-1,1.0855815E0,-5.0397784E-2,-4.5492634E-1,3.5963592E-1,-5.9742785E-1,8.0467033E-1,1.7452652E0,4.974947E-2,1.0078372E0,-2.790007E-1,6.0367745E-1,3.608313E-2,-1.02330245E-1,-2.5969364E-2,-3.277056E-1,5.0800326E-3,5.149174E-2,-3.0517232E-2,-1.8167034E-1,9.044698E-2,-1.4651032E-1,-1.7356421E-1,6.501999E-2,-3.6113232E-1,-1.5206435E-1,-1.2734134E-1,-5.130534E-1,2.4185973E-1,-4.738884E-2,-2.4743428E-2,1.2913464E-1,-2.1666127E-1,1.413818E-1,3.08408E-1,1.0924747E-1,3.5603893E-1,2.6197243E-2,-5.3008605E-2,3.7133303E-1,-3.613276E-1,-6.889234E-2,2.2467321E-1,2.5332537E-3,-7.3402025E-2,-2.4835368E-1,3.189663E-1,8.336888E-2,5.917144E-1,1.6736032E-1,1.2424889E-1,3.1891942E-1,-1.3356641E-1,2.7310181E-2,-1.16502E-1,2.0289837E-1],"categories":[],"categories_nodes":[],"categories_segments":[],"categories_sizes":[],"default_left":[0,0,0,0,0,0,0,0,0,0,0,0,0,0,0,0,0,0,0,0,0,0,0,0,0,0,0,0,0,0,0,0,0,0,0,0,0,0,0,0,0,0,0,0,0,0,0,0,0,0,0,0,0,0,0,0,0,0,0,0,0,0,0,0,0,0,0,0,0,0,0,0,0,0,0,0,0,0,0,0,0,0,0,0,0,0,0,0,0,0,0,0,0,0,0,0,0,0,0,0,0,0,0,0,0],"id":5,"left_children":[1,3,5,7,9,11,13,15,17,19,21,23,25,27,29,31,33,35,37,39,41,43,45,47,49,51,53,55,57,-1,59,-1,-1,61,63,65,-1,67,69,-1,-1,71,73,-1,-1,75,77,79,81,83,85,87,89,91,93,95,97,-1,99,101,103,-1,-1,-1,-1,-1,-1,-1,-1,-1,-1,-1,-1,-1,-1,-1,-1,-1,-1,-1,-1,-1,-1,-1,-1,-1,-1,-1,-1,-1,-1,-1,-1,-1,-1,-1,-1,-1,-1,-1,-1,-1,-1,-1,-1],"loss_changes":[9.4480415E1,1.5058838E1,1.787323E1,4.951166E0,6.9521713E0,8.2990465E0,7.3003693E0,1.9982233E0,2.6716802E0,5.9496765E0,4.375932E0,4.60017E0,2.358047E0,9.1174316E-1,2.3396554E0,2.6265955E-1,2.005374E0,3.980837E-1,1.5172738E0,1.6741409E0,1.9395084E0,1.0381901E-1,2.9881067E0,2.7988894E0,2.2723083E0,1.3282471E0,2.987668E0,7.527847E-1,3.7531662E-1,0E0,3.8939805E0,0E0,0E0,1.0058377E0,1.9942427E0,1.366242E-2,0E0,1.6759381E0,1.4517317E0,0E0,0E0,1.2657593E0,2.5012493E0,0E0,0E0,4.956048E0,7.8953797E-1,2.1308265E0,4.099273E0,3.208519E0,9.067488E-1,3.6352687E0,2.087329E0,2.5911674E0,1.2257171E-1,3.8552356E-1,1.5964394E0,0E0,8.431244E-2,4.7108197E-1,1.7040534E0,0E0,0E0,0E0,0E0,0E0,0E0,0E0,0E0,0E0,0E0,0E0,0E0,0E0,0E0,0E0,0E0,0E0,0E0,0E0,0E0,0E0,0E0,0E0,0E0,0E0,0E0,0E0,0E0,0E0,0E0,0E0,0E0,0E0,0E0,0E0,0E0,0E0,0E0,0E0,0E0,0E0,0E0,0E0,0E0],"parents":[2147483647,0,0,1,1,2,2,3,3,4,4,5,5,6,6,7,7,8,8,9,9,10,10,11,11,12,12,13,13,14,14,15,15,16,16,17,17,18,18,19,19,20,20,21,21,22,22,23,23,24,24,25,25,26,26,27,27,28,28,30,30,33,33,34,34,35,35,37,37,38,38,41,41,42,42,45,45,46,46,47,47,48,48,49,49,50,50,51,51,52,52,53,53,54,54,55,55,56,56,58,58,59,59,60,60],"right_children":[2,4,6,8,10,12,14,16,18,20,22,24,26,28,30,32,34,36,38,40,42,44,46,48,50,52,54,56,58,-1,60,-1,-1,62,64,66,-1,68,70,-1,-1,72,74,-1,-1,76,78,80,82,84,86,88,90,92,94,96,98,-1,100,102,104,-1,-1,-1,-1,-1,-1,-1,-1,-1,-1,-1,-1,-1,-1,-1,-1,-1,-1,-1,-1,-1,-1,-1,-1,-1,-1,-1,-1,-1,-1,-1,-1,-1,-1,-1,-1,-1,-1,-1,-1,-1,-1,-1,-1],"split_conditions":[-2.3981871E-2,4.9742407E-1,3.4193358E-1,-2.593073E-1,-1.9374637E-1,5.060892E-1,4.2080787E-1,-4.4221944E-1,-4.794159E-2,2.585916E1,2.6592846E1,1.4581081E-1,2.5527042E-1,1.4593357E-1,-3.216086E-1,1.4114454E-1,3.267928E-1,2.3004167E-1,-9.311449E-3,5.904695E-1,1.8771493E-1,5.598017E-1,1.3639383E-1,4.1078678E-1,4.220776E-1,1.15012966E-1,9.303984E1,1.7349606E1,1.0573869E-1,3.7674597E-1,-1.066613E-1,-5.8428958E-2,-3.0199465E-1,-4.190807E-1,-3.092519E-1,-2.3688743E-1,1.9740097E-1,2.8169137E-1,1.0486853E-1,-2.1004058E-1,-5.813533E-1,1.6894802E-1,-3.1197527E-1,3.9030936E-2,2.0659485E-1,-5.279746E-2,6.168836E-1,-3.0398503E-1,3.0658948E-1,2.568613E-2,3.0007097E-1,1.1293958E-1,1.3666968E-1,2.8690338E-1,-1.4270854E-2,-2.162119E-1,8.655624E1,4.974947E-2,7.8939404E0,6.333426E-1,4.3364593E-1,3.608313E-2,-1.02330245E-1,-2.5969364E-2,-3.277056E-1,5.0800326E-3,5.149174E-2,-3.0517232E-2,-1.8167034E-1,9.044698E-2,-1.4651032E-1,-1.7356421E-1,6.501999E-2,-3.6113232E-1,-1.5206435E-1,-1.2734134E-1,-5.130534E-1,2.4185973E-1,-4.738884E-2,-2.4743428E-2,1.2913464E-1,-2.1666127E-1,1.413818E-1,3.08408E-1,1.0924747E-1,3.5603893E-1,2.6197243E-2,-5.3008605E-2,3.7133303E-1,-3.613276E-1,-6.889234E-2,2.2467321E-1,2.5332537E-3,-7.3402025E-2,-2.4835368E-1,3.189663E-1,8.336888E-2,5.917144E-1,1.6736032E-1,1.2424889E-1,3.1891942E-1,-1.3356641E-1,2.7310181E-2,-1.16502E-1,2.0289837E-1],"split_indices":[1,0,1,1,1,0,0,1,0,4,4,1,1,0,2,3,0,3,2,0,3,0,2,0,0,1,4,4,3,0,2,0,0,1,2,1,0,3,2,0,0,3,1,0,0,1,0,2,3,0,1,1,1,1,2,2,4,0,4,0,0,0,0,0,0,0,0,0,0,0,0,0,0,0,0,0,0,0,0,0,0,0,0,0,0,0,0,0,0,0,0,0,0,0,0,0,0,0,0,0,0,0,0,0,0],"split_type":[0,0,0,0,0,0,0,0,0,0,0,0,0,0,0,0,0,0,0,0,0,0,0,0,0,0,0,0,0,0,0,0,0,0,0,0,0,0,0,0,0,0,0,0,0,0,0,0,0,0,0,0,0,0,0,0,0,0,0,0,0,0,0,0,0,0,0,0,0,0,0,0,0,0,0,0,0,0,0,0,0,0,0,0,0,0,0,0,0,0,0,0,0,0,0,0,0,0,0,0,0,0,0,0,0],"sum_hessian":[4E2,1.79E2,2.21E2,1.03E2,7.6E1,1.64E2,5.7E1,5.4E1,4.9E1,5.1E1,2.5E1,1.1E2,5.4E1,2.9E1,2.8E1,8E0,4.6E1,7E0,4.2E1,1.2E1,3.9E1,3E0,2.2E1,5.6E1,5.4E1,3.3E1,2.1E1,1.3E1,1.6E1,3E0,2.5E1,1E0,7E0,3.7E1,9E0,3E0,4E0,3E1,1.2E1,3E0,9E0,1E1,2.9E1,1E0,2E0,2E1,2E0,4.6E1,1E1,4.5E1,9E0,2E1,1.3E1,1.8E1,3E0,4E0,9E0,1E0,1.5E1,6E0,1.9E1,5E0,3.2E1,3E0,6E0,1E0,2E0,2.1E1,9E0,1E1,2E0,8E0,2E0,1.9E1,1E1,1.7E1,3E0,1E0,1E0,1E1,3.6E1,6E0,4E0,9E0,3.6E1,8E0,1E0,1.9E1,1E0,2E0,1.1E1,8E0,1E1,2E0,1E0,2E0,2E0,7E0,2E0,2E0,1.3E1,4E0,2E0,1E0,1.8E1],"tree_param":{"num_deleted":"0","num_feature":"5","num_nodes":"105","size_leaf_vector":"1"}},{"base_weights":[9.193016E-4,-4.9170506E-1,2.58424E-1,-2.5856867E-1,-7.278959E-1,7.430121E-2,5.501259E-1,-6.9670296E-1,-1.9187379E-1,-1.1731269E0,-6.2139297E-1,1.22033335E-1,-7.5600773E-1,7.094494E-1,1.246063E-1,-4.96645E-2,-2.2272113E-1,-2.3085445E-1,4.4080448E-1,-5.021816E-1,-1.3720283E-1,-3.488421E-1,-7.955055E-1,3.2193115E-1,-4.173974E-3,-9.854627E-1,3.1389873E-2,5.6558615E-1,9.3893045E-1,5.339794E-1,-1.5523168E-1,-1.4222088E-1,-5.119204E-1,1.5067959E-1,3.846331E-2,-1.7103234E-1,1.0243092E-1,1.7430464E-2,-6.601058E-1,-3.8026173E-3,-8.448682E-1,3.7120596E-1,-4.6071768E-1,-4.964183E-1,7.205638E-2,-1.3069973E0,-1.2108421E-1,2.1615602E-2,-7.4901585E-3,9.5418906E-1,4.6401086E-1,1.3027258E0,6.846591E-1,7.2740954E-1,-2.8878084E-1,-4.2682186E-1,3.3252743E-1,-5.9859302E-2,2.69339E-2,-3.6717588E-1,-8.7378174E-2,-1.00454055E-1,9.506771E-2,7.801877E-2,-2.553154E-1,-2.1081734E-2,1.9370556E-2,-3.00179E-1,-1.8798073E-1,3.4135228E-1,9.6792094E-2,-2.0773451E-1,3.517113E-2,-1.9098173E-1,1.7787467E-1,-1.2794825E-1,4.8321504E-2,-4.4408214E-1,-9.2083745E-2,-7.252264E-2,1.8034745E-2,4.1215223E-1,2.5849344E-2,2.477935E-1,1.0866008E-1,1.14044674E-1,4.088987E-1,-1.5511895E-2,2.1930489E-1,3.344326E-2,2.6023737E-1,-1.2906647E-1,-8.849144E-4,-2.2456217E-1,-5.17185E-2,-3.1477407E-2,2.0605431E-1],"categories":[],"categories_nodes":[],"categories_segments":[],"categories_sizes":[],"default_left":[0,0,0,0,0,0,0,0,0,0,0,0,0,0,0,0,0,0,0,0,0,0,0,0,0,0,0,0,0,0,0,0,0,0,0,0,0,0,0,0,0,0,0,0,0,0,0,0,0,0,0,0,0,0,0,0,0,0,0,0,0,0,0,0,0,0,0,0,0,0,0,0,0,0,0,0,0,0,0,0,0,0,0,0,0,0,0,0,0,0,0,0,0,0,0,0,0],"id":6,"left_children":[1,3,5,7,9,11,13,15,17,19,21,23,25,27,29,-1,-1,31,33,-1,35,37,39,41,43,45,47,49,51,53,55,57,59,-1,-1,-1,-1,61,63,65,67,69,71,73,75,77,79,-1,-1,81,83,85,87,89,91,93,95,-1,-1,-1,-1,-1,-1,-1,-1,-1,-1,-1,-1,-1,-1,-1,-1,-1,-1,-1,-1,-1,-1,-1,-1,-1,-1,-1,-1,-1,-1,-1,-1,-1,-1,-1,-1,-1,-1,-1,-1],"loss_changes":[5.099516E1,7.410713E0,1.413829E1,1.9410343E0,2.4954796E0,6.5523405E0,6.8267174E0,9.556389E-2,1.6554811E0,5.995966E0,2.4274044E0,3.9117713E0,1.6569848E0,1.9119835E0,3.4050767E0,0E0,0E0,1.421907E0,1.2453079E-2,0E0,1.2306819E0,2.7476828E0,1.3255253E0,2.4849133E0,3.6380703E0,1.7872357E0,8.673731E-3,1.4519234E0,1.605648E0,2.1198213E0,2.5264008E0,6.428248E-1,1.8430548E0,0E0,0E0,0E0,0E0,1.3720338E0,2.5054522E0,1.8171242E-2,4.6070862E-1,1.7551179E0,6.1689997E-1,2.362696E0,3.7965E0,4.120636E-1,8.012218E-2,0E0,0E0,3.1600342E0,1.1749163E0,3.7895203E-2,6.5224266E-1,7.6590014E-1,1.2001544E-1,8.5320187E-1,1.1570542E0,0E0,0E0,0E0,0E0,0E0,0E0,0E0,0E0,0E0,0E0,0E0,0E0,0E0,0E0,0E0,0E0,0E0,0E0,0E0,0E0,0E0,0E0,0E0,0E0,0E0,0E0,0E0,0E0,0E0,0E0,0E0,0E0,0E0,0E0,0E0,0E0,0E0,0E0,0E0,0E0],"parents":[2147483647,0,0,1,1,2,2,3,3,4,4,5,5,6,6,7,7,8,8,9,9,10,10,11,11,12,12,13,13,14,14,17,17,18,18,20,20,21,21,22,22,23,23,24,24,25,25,26,26,27,27,28,28,29,29,30,30,31,31,32,32,37,37,38,38,39,39,40,40,41,41,42,42,43,43,44,44,45,45,46,46,49,49,50,50,51,51,52,52,53,53,54,54,55,55,56,56],"right_children":[2,4,6,8,10,12,14,16,18,20,22,24,26,28,30,-1,-1,32,34,-1,36,38,40,42,44,46,48,50,52,54,56,58,60,-1,-1,-1,-1,62,64,66,68,70,72,74,76,78,80,-1,-1,82,84,86,88,90,92,94,96,-1,-1,-1,-1,-1,-1,-1,-1,-1,-1,-1,-1,-1,-1,-1,-1,-1,-1,-1,-1,-1,-1,-1,-1,-1,-1,-1,-1,-1,-1,-1,-1,-1,-1,-1,-1,-1,-1,-1,-1],"split_conditions":[-1.3776456E-1,4.366429E-1,2.5527042E-1,-4.4221944E-1,2.0444838E1,6.9278365E-1,5.849216E-1,1.4114454E-1,3.8554215E-1,2.523415E-1,2.1676914E-1,1.8687725E-1,7.742556E-1,4.2808363E-1,-1.5893272E-1,-4.96645E-2,-2.2272113E-1,2.8356317E-1,3.900402E-1,-5.021816E-1,-1.9374637E-1,5.7780704E1,-3.3245176E-1,8.446659E1,-3.3518454E-1,2.5169024E-1,-6.5980636E-2,2.8690338E-1,4.6292686E-1,7.8557986E-1,9.143811E-2,3.4199953E-1,2.993752E-1,1.5067959E-1,3.846331E-2,-1.7103234E-1,1.0243092E-1,1.6894802E-1,-4.6383962E-1,4.7520795E-1,-3.4995133E-1,-3.814265E-1,-1.4647095E-1,6.741102E-1,2.676079E-1,1.3666968E-1,7.501528E-1,2.1615602E-2,-7.4901585E-3,9.303984E1,1.4686197E-1,-3.7261075E-1,4.6582216E-1,2.807616E-1,7.879671E-1,2.9419732E-1,4.9253536E1,-5.9859302E-2,2.69339E-2,-3.6717588E-1,-8.7378174E-2,-1.00454055E-1,9.506771E-2,7.801877E-2,-2.553154E-1,-2.1081734E-2,1.9370556E-2,-3.00179E-1,-1.8798073E-1,3.4135228E-1,9.6792094E-2,-2.0773451E-1,3.517113E-2,-1.9098173E-1,1.7787467E-1,-1.2794825E-1,4.8321504E-2,-4.4408214E-1,-9.2083745E-2,-7.252264E-2,1.8034745E-2,4.1215223E-1,2.5849344E-2,2.477935E-1,1.0866008E-1,1.14044674E-1,4.088987E-1,-1.5511895E-2,2.1930489E-1,3.344326E-2,2.6023737E-1,-1.2906647E-1,-8.849144E-4,-2.2456217E-1,-5.17185E-2,-3.1477407E-2,2.0605431E-1],"split_indices":[1,0,1,1,4,0,0,3,0,3,3,0,0,1,2,0,0,0,0,0,1,4,2,4,2,3,1,1,1,0,2,3,0,0,0,0,0,3,1,0,1,2,2,0,0,1,0,0,0,4,3,2,1,1,0,1,4,0,0,0,0,0,0,0,0,0,0,0,0,0,0,0,0,0,0,0,0,0,0,0,0,0,0,0,0,0,0,0,0,0,0,0,0,0,0,0,0],"split_type":[0,0,0,0,0,0,0,0,0,0,0,0,0,0,0,0,0,0,0,0,0,0,0,0,0,0,0,0,0,0,0,0,0,0,0,0,0,0,0,0,0,0,0,0,0,0,0,0,0,0,0,0,0,0,0,0,0,0,0,0,0,0,0,0,0,0,0,0,0,0,0,0,0,0,0,0,0,0,0,0,0,0,0,0,0,0,0,0,0,0,0,0,0,0,0,0,0],"sum_hessian":[4E2,1.37E2,2.63E2,7E1,6.7E1,1.62E2,1.01E2,8E0,6.2E1,1.1E1,5.6E1,1.54E2,8E0,7.3E1,2.8E1,1E0,7E0,5.9E1,3E0,7E0,4E0,2.3E1,3.3E1,5.9E1,9.5E1,6E0,2E0,4.7E1,2.6E1,1.1E1,1.7E1,4.6E1,1.3E1,2E0,1E0,2E0,2E0,1.1E1,1.2E1,2E0,3.1E1,5.6E1,3E0,1.2E1,8.3E1,4E0,2E0,1E0,1E0,8E0,3.9E1,9E0,1.7E1,9E0,2E0,1.1E1,6E0,3.7E1,9E0,2E0,1.1E1,5E0,6E0,2E0,1E1,1E0,1E0,1.6E1,1.5E1,2E0,5.4E1,2E0,1E0,1.1E1,1E0,1.2E1,7.1E1,3E0,1E0,1E0,1E0,5E0,3E0,7E0,3.2E1,1E0,8E0,1E0,1.6E1,2E0,7E0,1E0,1E0,4E0,7E0,3E0,3E0],"tree_param":{"num_deleted":"0","num_feature":"5","num_nodes":"97","size_leaf_vector":"1"}},{"base_weights":[-9.3865575E-4,-2.2334005E-1,3.2182032E-1,-5.0517243E-1,-1.16774276E-1,4.12938E-1,-1.3624191E-2,-3.7579304E-1,-9.113843E-1,5.672365E-1,-1.4457963E-1,3.326372E-1,6.7836714E-1,-2.4948579E-1,5.8952555E-2,-5.2075386E-3,-4.3463147E-1,-4.4015804E-1,-1.1766286E0,1.9602734E-1,7.035332E-2,-1.7657395E-1,2.1997015E-1,8.9534295E-1,2.876732E-1,9.368585E-1,4.6835253E-1,-6.269531E-1,1.7130509E-1,1.02766044E-1,-1.7822011E-1,-6.905742E-1,-3.2839072E-1,-6.055282E-1,8.280945E-2,-5.257474E-1,-5.966155E-1,-8.283993E-2,-3.1583884E-1,7.984111E-1,5.7029087E-2,2.9163074E-1,6.521788E-2,-4.4760832E-1,3.082987E-1,3.7455553E-1,6.2496376E-1,1.3732338E-1,6.2242347E-1,-5.563374E-2,-2.0729056E-1,6.313732E-1,7.6241784E-2,-7.171463E-2,1.8888474E-2,-7.8103974E-2,-3.2322326E-1,1.9214116E-1,-1.1360471E-1,-5.7603072E-2,-2.2928539E-1,-2.0645349E-1,-2.0820238E-2,-4.648099E-2,6.905279E-2,-2.2886291E-1,-6.1338194E-2,7.2757535E-2,2.8652745E-1,1.3048254E-1,-3.5180602E-2,7.760754E-2,-2.7903128E-1,3.4257603E-1,8.604763E-2,5.4229546E-2,2.5659898E-1,-3.7758637E-2,8.0331E-2,2.255383E-1,1.10326104E-1,2.9038602E-1,2.53006E-2,-2.7576042E-2,9.417297E-2],"categories":[],"categories_nodes":[],"categories_segments":[],"categories_sizes":[],"default_left":[0,0,0,0,0,0,0,0,0,0,0,0,0,0,0,0,0,0,0,0,0,0,0,0,0,0,0,0,0,0,0,0,0,0,0,0,0,0,0,0,0,0,0,0,0,0,0,0,0,0,0,0,0,0,0,0,0,0,0,0,0,0,0,0,0,0,0,0,0,0,0,0,0,0,0,0,0,0,0,0,0,0,0,0,0],"id":7,"left_children":[1,3,5,7,9,11,13,15,17,19,21,23,25,-1,27,29,31,33,35,-1,-1,37,39,41,43,45,47,49,51,-1,53,55,57,59,-1,-1,61,63,65,67,69,-1,-1,71,73,-1,75,77,79,-1,-1,81,83,-1,-1,-1,-1,-1,-1,-1,-1,-1,-1,-1,-1,-1,-1,-1,-1,-1,-1,-1,-1,-1,-1,-1,-1,-1,-1,-1,-1,-1,-1,-1,-1],"loss_changes":[2.8856478E1,7.0890274E0,5.0182724E0,3.0736103E0,3.3913462E0,2.52388E0,2.1862533E0,1.1097741E0,1.3569489E0,4.7503233E-2,1.998312E0,2.297884E0,1.1355419E0,0E0,2.7275503E0,5.423861E-1,9.696493E-1,9.9619925E-1,1.9605083E0,0E0,0E0,1.9971838E0,1.2739923E0,1.5294552E-1,1.5787239E0,3.8618183E-1,8.325622E-1,1.3179183E-2,1.2639308E0,0E0,1.0307543E-1,1.7166338E0,1.8504796E0,2.4714136E-1,0E0,0E0,2.4187946E-1,2.1569996E0,2.9310174E0,2.9655576E-2,8.41437E-1,0E0,0E0,1.2629712E0,1.337223E0,0E0,6.640127E-1,2.740237E-1,1.1888695E-1,0E0,0E0,8.3897793E-1,1.0679893E0,0E0,0E0,0E0,0E0,0E0,0E0,0E0,0E0,0E0,0E0,0E0,0E0,0E0,0E0,0E0,0E0,0E0,0E0,0E0,0E0,0E0,0E0,0E0,0E0,0E0,0E0,0E0,0E0,0E0,0E0,0E0,0E0],"parents":[2147483647,0,0,1,1,2,2,3,3,4,4,5,5,6,6,7,7,8,8,9,9,10,10,11,11,12,12,14,14,15,15,16,16,17,17,18,18,21,21,22,22,23,23,24,24,25,25,26,26,27,27,28,28,30,30,31,31,32,32,33,33,36,36,37,37,38,38,39,39,40,40,43,43,44,44,46,46,47,47,48,48,51,51,52,52],"right_children":[2,4,6,8,10,12,14,16,18,20,22,24,26,-1,28,30,32,34,36,-1,-1,38,40,42,44,46,48,50,52,-1,54,56,58,60,-1,-1,62,64,66,68,70,-1,-1,72,74,-1,76,78,80,-1,-1,82,84,-1,-1,-1,-1,-1,-1,-1,-1,-1,-1,-1,-1,-1,-1,-1,-1,-1,-1,-1,-1,-1,-1,-1,-1,-1,-1,-1,-1,-1,-1,-1,-1],"split_conditions":[1.0790509E-1,-3.4995133E-1,5.914461E-1,6.2155527E-1,-7.265165E-2,4.2703456E-1,1.3666968E-1,1.6546226E-1,-1.2262266E-1,5.4419865E1,1.4386247E-1,1.15012966E-1,1.4593357E-1,-2.4948579E-1,6.0414696E-1,3.8506314E-2,2.0058371E-1,5.2473564E1,2.1580264E-2,1.9602734E-1,7.035332E-2,4.9260664E-1,4.4683907E-2,5.598017E-1,1.1958796E-1,1.9758719E-1,1.6067626E-1,3.286908E-1,-3.216086E-1,1.02766044E-1,-3.7228653E-1,1.7807098E-1,2.0812805E-1,-4.2874327E-1,8.280945E-2,-5.257474E-1,7.7199006E-1,7.283708E1,5.2641857E-1,-4.2211957E-2,1.6187564E-1,2.9163074E-1,6.521788E-2,2.7775458E-1,-3.9297605E-1,3.7455553E-1,2.6066613E-1,4.6848878E-1,4.6848878E-1,-5.563374E-2,-2.0729056E-1,6.2052804E-1,3.2267594E-1,-7.171463E-2,1.8888474E-2,-7.8103974E-2,-3.2322326E-1,1.9214116E-1,-1.1360471E-1,-5.7603072E-2,-2.2928539E-1,-2.0645349E-1,-2.0820238E-2,-4.648099E-2,6.905279E-2,-2.2886291E-1,-6.1338194E-2,7.2757535E-2,2.8652745E-1,1.3048254E-1,-3.5180602E-2,7.760754E-2,-2.7903128E-1,3.4257603E-1,8.604763E-2,5.4229546E-2,2.5659898E-1,-3.7758637E-2,8.0331E-2,2.255383E-1,1.10326104E-1,2.9038602E-1,2.53006E-2,-2.7576042E-2,9.417297E-2],"split_indices":[1,1,0,0,0,1,1,3,2,4,2,1,0,0,0,0,3,4,2,0,0,0,0,0,1,3,3,3,2,0,1,3,3,1,0,0,0,4,0,0,3,0,0,0,2,0,3,1,1,0,0,0,3,0,0,0,0,0,0,0,0,0,0,0,0,0,0,0,0,0,0,0,0,0,0,0,0,0,0,0,0,0,0,0,0],"split_type":[0,0,0,0,0,0,0,0,0,0,0,0,0,0,0,0,0,0,0,0,0,0,0,0,0,0,0,0,0,0,0,0,0,0,0,0,0,0,0,0,0,0,0,0,0,0,0,0,0,0,0,0,0,0,0,0,0,0,0,0,0,0,0,0,0,0,0,0,0,0,0,0,0,0,0,0,0,0,0,0,0,0,0,0,0],"sum_hessian":[4E2,2.37E2,1.63E2,6.4E1,1.73E2,1.28E2,3.5E1,5E1,1.4E1,6E0,1.67E2,1E2,2.8E1,2E0,3.3E1,7E0,4.3E1,6E0,8E0,4E0,2E0,1.54E2,1.3E1,6E0,9.4E1,1.1E1,1.7E1,4E0,2.9E1,2E0,5E0,1.1E1,3.2E1,5E0,1E0,3E0,5E0,9.3E1,6.1E1,2E0,1.1E1,5E0,1E0,2E0,9.2E1,4E0,7E0,6E0,1.1E1,1E0,3E0,4E0,2.5E1,4E0,1E0,6E0,5E0,1E0,3.1E1,2E0,3E0,4E0,1E0,7.6E1,1.7E1,1.1E1,5E1,1E0,1E0,3E0,8E0,1E0,1E0,1E0,9.1E1,3E0,4E0,2E0,4E0,6E0,5E0,2E0,2E0,1.5E1,1E1],"tree_param":{"num_deleted":"0","num_feature":"5","num_nodes":"85","size_leaf_vector":"1"}},{"base_weights":[1.1909157E-3,-2.7809155E-1,1.4557019E-1,-1.3720289E-1,-4.2324084E-1,4.3303933E-2,3.0857113E-1,-6.141472E-1,-1.07129656E-1,-7.4748796E-1,-3.4620145E-1,7.5783886E-2,-5.244935E-1,5.628354E-1,1.7880943E-1,-2.536631E-1,1.2006284E-2,-4.0622732E-1,-6.0479514E-2,-1.0832998E0,-6.0691454E-2,-4.0566854E-2,-4.376592E-1,1.3013989E-1,-1.4759156E-1,-7.0330894E-1,6.757355E-2,-3.767796E-2,5.875027E-1,5.5029415E-2,3.580934E-1,-3.145752E-2,-1.2923735E-1,-9.1080815E-2,1.1721268E-1,-1.1663452E0,-7.5297266E-2,-1.2455826E-1,3.1404176E-1,-1.4587624E-1,3.9419302E-1,8.2558826E-2,-4.931318E-1,9.454633E-2,7.2172356E-1,-2.281189E-1,2.0401098E-1,-9.421837E-1,-7.074801E-2,2.7573967E-2,2.8341294E-3,-2.7569676E-2,6.116059E-1,2.5372657E-1,-1.9885273E-1,5.309224E-1,-6.091118E-3,-1.530795E-2,-9.9010564E-2,-3.9633837E-1,-1.558777E-1,2.7012635E-2,1.1430617E-1,-6.6648E-2,1.0398675E-1,2.7892686E-2,1.4949417E-1,5.0936367E-2,-3.9953616E-2,-2.9691803E-1,-1.2727694E-1,9.38007E-2,4.517369E-3,3.624317E-1,8.566487E-2,-1.0298903E-1,1.9792812E-2,-3.162515E-1,-7.413483E-2,-5.244341E-2,2.0606805E-2,9.19302E-2,2.1016854E-1,9.232739E-2,-6.812382E-2,1.566998E-2,-1.4509226E-1,2.0439938E-1,2.744446E-2,1.7905512E-1,-4.18204E-2],"categories":[],"categories_nodes":[],"categories_segments":[],"categories_sizes":[],"default_left":[0,0,0,0,0,0,0,0,0,0,0,0,0,0,0,0,0,0,0,0,0,0,0,0,0,0,0,0,0,0,0,0,0,0,0,0,0,0,0,0,0,0,0,0,0,0,0,0,0,0,0,0,0,0,0,0,0,0,0,0,0,0,0,0,0,0,0,0,0,0,0,0,0,0,0,0,0,0,0,0,0,0,0,0,0,0,0,0,0,0,0],"id":8,"left_children":[1,3,5,7,9,11,13,15,17,19,21,23,25,27,29,-1,-1,31,33,35,37,39,41,43,45,47,49,-1,51,53,55,-1,-1,57,-1,59,-1,-1,61,63,65,67,69,71,73,75,-1,77,79,-1,-1,-1,81,83,85,87,89,-1,-1,-1,-1,-1,-1,-1,-1,-1,-1,-1,-1,-1,-1,-1,-1,-1,-1,-1,-1,-1,-1,-1,-1,-1,-1,-1,-1,-1,-1,-1,-1,-1,-1],"loss_changes":[1.6209845E1,2.7435646E0,4.4040546E0,9.525778E-1,1.4148645E0,3.0642424E0,3.2647238E0,6.39328E-1,9.242322E-1,2.7018652E0,1.5475945E0,1.9133275E0,1.0003612E0,6.5116405E-1,1.5115271E0,0E0,0E0,2.1452785E-2,8.6400336E-1,2.6021385E-1,7.946081E-1,6.984835E-1,1.281599E0,2.5848904E0,2.2211764E0,9.9106264E-1,3.3760248E-3,0E0,5.9660435E-1,2.1691718E0,1.7656E0,0E0,0E0,5.287153E-1,0E0,1.4295578E-2,0E0,0E0,1.0701776E-2,5.2784145E-1,4.7758073E-2,1.1670505E-1,9.140253E-1,2.0758793E0,1.1400568E0,1.004973E0,0E0,1.286931E-1,5.5538636E-2,0E0,0E0,0E0,6.540222E-1,6.933727E-1,1.383882E0,1.1934905E0,8.8698435E-1,0E0,0E0,0E0,0E0,0E0,0E0,0E0,0E0,0E0,0E0,0E0,0E0,0E0,0E0,0E0,0E0,0E0,0E0,0E0,0E0,0E0,0E0,0E0,0E0,0E0,0E0,0E0,0E0,0E0,0E0,0E0,0E0,0E0,0E0],"parents":[2147483647,0,0,1,1,2,2,3,3,4,4,5,5,6,6,7,7,8,8,9,9,10,10,11,11,12,12,13,13,14,14,17,17,18,18,19,19,20,20,21,21,22,22,23,23,24,24,25,25,26,26,28,28,29,29,30,30,33,33,35,35,38,38,39,39,40,40,41,41,42,42,43,43,44,44,45,45,47,47,48,48,52,52,53,53,54,54,55,55,56,56],"right_children":[2,4,6,8,10,12,14,16,18,20,22,24,26,28,30,-1,-1,32,34,36,38,40,42,44,46,48,50,-1,52,54,56,-1,-1,58,-1,60,-1,-1,62,64,66,68,70,72,74,76,-1,78,80,-1,-1,-1,82,84,86,88,90,-1,-1,-1,-1,-1,-1,-1,-1,-1,-1,-1,-1,-1,-1,-1,-1,-1,-1,-1,-1,-1,-1,-1,-1,-1,-1,-1,-1,-1,-1,-1,-1,-1,-1],"split_conditions":[-1.398636E-1,4.366429E-1,2.5527042E-1,1.19201906E-1,2.0444838E1,6.9278365E-1,2.82944E-1,3.3194494E-1,-4.4221944E-1,2.523415E-1,1.7807098E-1,7.5117714E1,7.742556E-1,1.1876945E-1,-8.102326E-3,-2.536631E-1,1.2006284E-2,1.4114454E-1,3.8554215E-1,-9.311449E-3,-1.9374637E-1,1.6894802E-1,-3.3245176E-1,7.0943886E1,3.6937577E-1,2.5169024E-1,-6.5980636E-2,-3.767796E-2,-7.265165E-2,-1.5422267E-1,6.337116E1,-3.145752E-2,-1.2923735E-1,-1.9672485E-1,1.1721268E-1,-2.593073E-1,-7.5297266E-2,-1.2455826E-1,5.598017E-1,7.742556E-1,4.5523423E-1,6.897148E-1,1.9634865E-1,9.816488E-2,2.545017E-1,1.5647861E-1,2.0401098E-1,1.3666968E-1,7.501528E-1,2.7573967E-2,2.8341294E-3,-2.7569676E-2,2.0754093E1,7.8557986E-1,2.944954E-1,5.849216E-1,2.6028982E-1,-1.530795E-2,-9.9010564E-2,-3.9633837E-1,-1.558777E-1,2.7012635E-2,1.1430617E-1,-6.6648E-2,1.0398675E-1,2.7892686E-2,1.4949417E-1,5.0936367E-2,-3.9953616E-2,-2.9691803E-1,-1.2727694E-1,9.38007E-2,4.517369E-3,3.624317E-1,8.566487E-2,-1.0298903E-1,1.9792812E-2,-3.162515E-1,-7.413483E-2,-5.244341E-2,2.0606805E-2,9.19302E-2,2.1016854E-1,9.232739E-2,-6.812382E-2,1.566998E-2,-1.4509226E-1,2.0439938E-1,2.744446E-2,1.7905512E-1,-4.18204E-2],"split_indices":[1,0,1,3,4,0,0,0,1,3,3,4,0,3,2,0,0,3,0,2,1,3,2,4,3,3,1,0,0,2,4,0,0,1,0,1,0,0,0,0,0,0,3,0,3,1,0,1,0,0,0,0,4,0,3,0,1,0,0,0,0,0,0,0,0,0,0,0,0,0,0,0,0,0,0,0,0,0,0,0,0,0,0,0,0,0,0,0,0,0,0],"split_type":[0,0,0,0,0,0,0,0,0,0,0,0,0,0,0,0,0,0,0,0,0,0,0,0,0,0,0,0,0,0,0,0,0,0,0,0,0,0,0,0,0,0,0,0,0,0,0,0,0,0,0,0,0,0,0,0,0,0,0,0,0,0,0,0,0,0,0,0,0,0,0,0,0,0,0,0,0,0,0,0,0,0,0,0,0,0,0,0,0,0,0],"sum_hessian":[4E2,1.36E2,2.64E2,7E1,6.6E1,1.63E2,1.01E2,3E0,6.7E1,1.1E1,5.5E1,1.55E2,8E0,3.3E1,6.8E1,2E0,1E0,8E0,5.9E1,7E0,4E0,1.3E1,4.2E1,1.25E2,3E1,6E0,2E0,1E0,3.2E1,4.1E1,2.7E1,1E0,7E0,5.6E1,3E0,6E0,1E0,2E0,2E0,1.1E1,2E0,4E0,3.8E1,1.19E2,6E0,2.8E1,2E0,4E0,2E0,1E0,1E0,1E0,3.1E1,2.3E1,1.8E1,1.8E1,9E0,4.9E1,7E0,4E0,2E0,1E0,1E0,1E1,1E0,1E0,1E0,3E0,1E0,3E0,3.5E1,3.1E1,8.8E1,2E0,4E0,2E1,8E0,3E0,1E0,1E0,1E0,8E0,2.3E1,2.1E1,2E0,1E1,8E0,1.3E1,5E0,1E0,8E0],"tree_param":{"num_deleted":"0","num_feature":"5","num_nodes":"91","size_leaf_vector":"1"}},{"base_weights":[-2.4488263E-4,-1.2821254E-1,1.7087609E-1,-6.70807E-2,-3.2621485E-1,3.1683198E-1,1.5424922E-1,-1.2134091E-1,1.565276E-1,-9.194142E-1,-2.3291047E-1,1.8322736E-1,-2.0981187E-1,-4.090601E-2,-3.1379372E-1,3.9823735E-1,-4.4666577E-2,-1.0615082E-1,-3.224635E-1,-7.1741056E-1,-1.3269313E-1,3.367787E-1,9.796422E-2,-2.1124707E-1,-1.09936714E-1,-1.18734196E-1,2.3157924E-1,-5.8268327E-1,-1.07641526E-1,-6.0418513E-2,4.5163918E-1,-2.3552059E-1,2.710545E-1,-6.87561E-2,-9.221694E-1,-2.8312957E-1,1.4693871E-1,5.230105E-2,4.3958026E-1,-3.157427E-1,1.3612631E-1,-3.5052385E-2,-1.4004965E-1,4.8810975E-3,-1.5736839E-1,1.18097514E-1,-5.546837E-3,2.1495897E-2,-2.3242636E-1,3.92925E-2,-1.0139338E-1,3.400612E-3,1.555519E-1,6.414013E-2,-8.7234214E-2,-2.310917E-2,1.9151917E-1,-3.296986E-2,2.0296099E-3,-8.991842E-2,-3.475374E-1,-1.1995521E-1,1.4639384E-1,2.3020947E-1,-4.452938E-2,-8.945267E-2,8.772137E-2,1.4125134E-1,-1.2160807E-1,-1.6240183E-1,2.2335464E-1,2.637889E-1,3.070048E-2,9.383911E-3,-3.627205E-2],"categories":[],"categories_nodes":[],"categories_segments":[],"categories_sizes":[],"default_left":[0,0,0,0,0,0,0,0,0,0,0,0,0,0,0,0,0,0,0,0,0,0,0,0,0,0,0,0,0,0,0,0,0,0,0,0,0,0,0,0,0,0,0,0,0,0,0,0,0,0,0,0,0,0,0,0,0,0,0,0,0,0,0,0,0,0,0,0,0,0,0,0,0,0,0],"id":9,"left_children":[1,3,5,7,9,-1,11,13,15,17,19,21,23,25,27,29,31,-1,-1,33,35,37,39,-1,41,43,45,47,49,-1,51,53,55,57,59,61,63,65,67,69,71,73,-1,-1,-1,-1,-1,-1,-1,-1,-1,-1,-1,-1,-1,-1,-1,-1,-1,-1,-1,-1,-1,-1,-1,-1,-1,-1,-1,-1,-1,-1,-1,-1,-1],"loss_changes":[8.802987E0,2.7620947E0,2.3686972E0,2.1665401E0,2.7746563E0,0E0,1.8319111E0,2.200793E0,1.7198586E0,2.3515844E-1,2.2354598E0,2.0355859E0,5.644335E-1,2.1906137E0,2.26543E0,6.033015E-1,1.2689716E0,0E0,0E0,9.991369E-1,1.7663424E0,1.6147151E0,1.6691365E0,0E0,3.0434695E-1,4.3916135E0,9.394897E-1,2.3177395E0,1.4183183E0,0E0,4.3575E-1,3.8495296E-1,1.0721083E0,1.0065143E-2,5.3523207E-1,2.6252456E0,2.86273E0,1.4335984E0,1.2737002E0,2.5557523E0,2.295727E0,6.6425875E-2,0E0,0E0,0E0,0E0,0E0,0E0,0E0,0E0,0E0,0E0,0E0,0E0,0E0,0E0,0E0,0E0,0E0,0E0,0E0,0E0,0E0,0E0,0E0,0E0,0E0,0E0,0E0,0E0,0E0,0E0,0E0,0E0,0E0],"parents":[2147483647,0,0,1,1,2,2,3,3,4,4,6,6,7,7,8,8,9,9,10,10,11,11,12,12,13,13,14,14,15,15,16,16,19,19,20,20,21,21,22,22,24,24,25,25,26,26,27,27,28,28,30,30,31,31,32,32,33,33,34,34,35,35,36,36,37,37,38,38,39,39,40,40,41,41],"right_children":[2,4,6,8,10,-1,12,14,16,18,20,22,24,26,28,30,32,-1,-1,34,36,38,40,-1,42,44,46,48,50,-1,52,54,56,58,60,62,64,66,68,70,72,74,-1,-1,-1,-1,-1,-1,-1,-1,-1,-1,-1,-1,-1,-1,-1,-1,-1,-1,-1,-1,-1,-1,-1,-1,-1,-1,-1,-1,-1,-1,-1,-1,-1],"split_conditions":[9.034769E-2,6.2590504E-1,-3.9297605E-1,6.602634E-2,6.432351E-1,3.1683198E-1,9.385298E1,-4.6761088E-2,1.16083816E-1,3.951553E1,-4.044647E-1,2.316737E-1,9.467562E1,3.34588E-1,-7.4244686E-3,-4.5682627E-1,-4.055323E-2,-1.0615082E-1,-3.224635E-1,-1.2262266E-1,5.5704052E1,2.3747856E1,2.8910133E-1,-2.1124707E-1,3.299545E-1,2.8585786E-1,3.6643547E-1,-2.092015E-2,2.614568E-2,-6.0418513E-2,-6.944862E-2,-4.2211957E-2,1.7355129E-1,6.846052E-1,6.8132806E-1,3.6375573E-1,6.8608093E-1,2.2597991E-1,1.330422E-1,6.738389E1,3.0382425E-1,-1.5338735E-1,-1.4004965E-1,4.8810975E-3,-1.5736839E-1,1.18097514E-1,-5.546837E-3,2.1495897E-2,-2.3242636E-1,3.92925E-2,-1.0139338E-1,3.400612E-3,1.555519E-1,6.414013E-2,-8.7234214E-2,-2.310917E-2,1.9151917E-1,-3.296986E-2,2.0296099E-3,-8.991842E-2,-3.475374E-1,-1.1995521E-1,1.4639384E-1,2.3020947E-1,-4.452938E-2,-8.945267E-2,8.772137E-2,1.4125134E-1,-1.2160807E-1,-1.6240183E-1,2.2335464E-1,2.637889E-1,3.070048E-2,9.383911E-3,-3.627205E-2],"split_indices":[1,0,2,2,0,0,4,2,2,4,1,0,4,3,2,1,1,0,0,2,4,4,0,0,3,3,3,0,2,0,0,0,2,0,0,3,0,1,2,4,0,2,0,0,0,0,0,0,0,0,0,0,0,0,0,0,0,0,0,0,0,0,0,0,0,0,0,0,0,0,0,0,0,0,0],"split_type":[0,0,0,0,0,0,0,0,0,0,0,0,0,0,0,0,0,0,0,0,0,0,0,0,0,0,0,0,0,0,0,0,0,0,0,0,0,0,0,0,0,0,0,0,0,0,0,0,0,0,0,0,0,0,0,0,0,0,0,0,0,0,0,0,0,0,0,0,0,0,0,0,0,0,0],"sum_hessian":[4E2,2.29E2,1.71E2,1.76E2,5.3E1,2E0,1.69E2,1.42E2,3.4E1,6E0,4.7E1,1.57E2,1.2E1,1.01E2,4.1E1,1.5E1,1.9E1,2E0,4E0,7E0,4E1,5.5E1,1.02E2,1E0,1.1E1,7.9E1,2.2E1,1.7E1,2.4E1,1E0,1.4E1,1.2E1,7E0,2E0,5E0,2.6E1,1.4E1,1.5E1,4E1,8E0,9.4E1,1E1,1E0,6E1,1.9E1,1.3E1,9E0,4E0,1.3E1,1.2E1,1.2E1,2E0,1.2E1,1E0,1.1E1,4E0,3E0,1E0,1E0,2E0,3E0,2.3E1,3E0,4E0,1E1,6E0,9E0,3.9E1,1E0,7E0,1E0,3E0,9.1E1,6E0,4E0],"tree_param":{"num_deleted":"0","num_feature":"5","num_nodes":"75","size_leaf_vector":"1"}},{"base_weights":[-1.2737237E-3,-1.5738687E-1,8.033571E-2,-9.378878E-2,-2.8254417E-1,2.5346568E-1,7.127469E-2,-1.2651123E-1,2.2567749E-1,-5.396764E-1,-1.8631186E-1,1.2839074E-1,-3.566139E-2,-9.09126E-2,-5.800743E-1,4.46393E-1,4.0920895E-2,-1.8190506E-1,-8.671303E-1,-5.118119E-3,-3.77863E-1,-1.5960714E-1,1.6121912E-1,-3.6371255E-1,3.2968223E-2,-1.2896317E-1,6.9349885E-2,5.2027132E-2,-7.654587E-1,4.0143016E-3,1.7588101E-1,-9.71427E-2,6.340962E-2,2.409935E-2,-1.0272997E-1,-2.866322E-1,-6.383672E-2,-2.574688E-1,2.4774437E-1,-5.4469806E-1,1.8784365E-2,3.2412973E-1,-5.7900965E-1,4.6688825E-1,1.14740595E-1,-5.805251E-1,-7.433438E-2,6.350837E-1,-2.4073834E-5,-5.7830926E-2,7.272034E-3,7.913168E-2,-3.3352662E-2,-2.6158822E-1,-5.091763E-2,-7.119084E-3,-3.4111023E-2,8.48961E-3,1.725197E-3,-2.1777707E-1,5.2746486E-2,2.9185296E-3,1.4514439E-1,-1.9831957E-1,-4.4009257E-2,8.434964E-2,-5.480926E-2,4.8932485E-2,1.7754099E-1,-2.1340872E-1,-9.919739E-3,6.756063E-2,1.7391111E-1,1.0655741E-1,2.3126788E-2,-1.0110264E-1,-2.4020047E-1,-1.1108627E-1,2.5809385E-2,7.344666E-2,2.7088022E-1,-2.7315676E-1,1.13741085E-2],"categories":[],"categories_nodes":[],"categories_segments":[],"categories_sizes":[],"default_left":[0,0,0,0,0,0,0,0,0,0,0,0,0,0,0,0,0,0,0,0,0,0,0,0,0,0,0,0,0,0,0,0,0,0,0,0,0,0,0,0,0,0,0,0,0,0,0,0,0,0,0,0,0,0,0,0,0,0,0,0,0,0,0,0,0,0,0,0,0,0,0,0,0,0,0,0,0,0,0,0,0,0,0],"id":10,"left_children":[1,3,5,7,9,-1,11,13,15,17,19,21,23,25,27,29,31,33,35,37,39,41,43,45,47,49,51,-1,53,-1,-1,55,-1,57,-1,-1,-1,59,61,63,65,67,69,71,73,75,77,79,81,-1,-1,-1,-1,-1,-1,-1,-1,-1,-1,-1,-1,-1,-1,-1,-1,-1,-1,-1,-1,-1,-1,-1,-1,-1,-1,-1,-1,-1,-1,-1,-1,-1,-1],"loss_changes":[5.121506E0,1.0719488E0,1.7686661E0,1.0007465E0,1.0376954E0,0E0,1.6048135E0,1.3196927E0,3.4874105E-1,1.2481077E0,1.2128414E0,1.6424522E0,2.083281E0,4.9678993E-1,9.7086906E-1,2.3442882E-1,1.6172567E-1,2.3973899E-1,1.43404E-1,1.2761768E0,1.1352019E0,3.8395224E0,2.1343145E0,9.606998E-1,1.5296335E0,6.400722E-1,5.9089595E-1,0E0,1.6924E-1,0E0,0E0,2.1648332E-3,0E0,1.4547398E-4,0E0,0E0,0E0,2.1574025E0,5.5717814E-1,4.587934E-1,3.6855844E-1,2.913826E-1,6.9904995E-1,4.1476822E-1,1.1948119E0,2.126441E-1,4.1154218E-1,1.9706845E-1,2.5906498E0,0E0,0E0,0E0,0E0,0E0,0E0,0E0,0E0,0E0,0E0,0E0,0E0,0E0,0E0,0E0,0E0,0E0,0E0,0E0,0E0,0E0,0E0,0E0,0E0,0E0,0E0,0E0,0E0,0E0,0E0,0E0,0E0,0E0,0E0],"parents":[2147483647,0,0,1,1,2,2,3,3,4,4,6,6,7,7,8,8,9,9,10,10,11,11,12,12,13,13,14,14,15,15,16,16,17,17,18,18,19,19,20,20,21,21,22,22,23,23,24,24,25,25,26,26,28,28,31,31,33,33,37,37,38,38,39,39,40,40,41,41,42,42,43,43,44,44,45,45,46,46,47,47,48,48],"right_children":[2,4,6,8,10,-1,12,14,16,18,20,22,24,26,28,30,32,34,36,38,40,42,44,46,48,50,52,-1,54,-1,-1,56,-1,58,-1,-1,-1,60,62,64,66,68,70,72,74,76,78,80,82,-1,-1,-1,-1,-1,-1,-1,-1,-1,-1,-1,-1,-1,-1,-1,-1,-1,-1,-1,-1,-1,-1,-1,-1,-1,-1,-1,-1,-1,-1,-1,-1,-1,-1],"split_conditions":[-1.3776456E-1,5.904695E-1,-3.9297605E-1,5.277243E-1,-4.1782832E-1,2.5346568E-1,5.060892E-1,5.122054E-1,2.1676914E-1,-4.5682627E-1,2.3268814E-1,1.22709915E-1,5.342127E-1,9.6949555E-2,-2.319776E-1,-3.251075E-1,-3.2589066E-1,-1.2262266E-1,-7.2740875E-2,-2.3391141E-1,7.524683E1,1.116938E-1,1.6067626E-1,1.4232552E-1,-1.01177216E-1,3.2122782E-1,1.2944981E-1,5.2027132E-2,5.2767825E-1,4.0143016E-3,1.7588101E-1,5.360995E-1,6.340962E-2,6.2155527E-1,-1.0272997E-1,-2.866322E-1,-6.383672E-2,6.863094E-1,1.5849257E-1,4.591592E-2,-2.7603712E-2,1.0934473E-1,1.2053762E-1,3.4131866E1,1.0024556E1,-1.2978941E-1,-1.7729655E-1,6.2706137E-1,-8.64509E-2,-5.7830926E-2,7.272034E-3,7.913168E-2,-3.3352662E-2,-2.6158822E-1,-5.091763E-2,-7.119084E-3,-3.4111023E-2,8.48961E-3,1.725197E-3,-2.1777707E-1,5.2746486E-2,2.9185296E-3,1.4514439E-1,-1.9831957E-1,-4.4009257E-2,8.434964E-2,-5.480926E-2,4.8932485E-2,1.7754099E-1,-2.1340872E-1,-9.919739E-3,6.756063E-2,1.7391111E-1,1.0655741E-1,2.3126788E-2,-1.0110264E-1,-2.4020047E-1,-1.1108627E-1,2.5809385E-2,7.344666E-2,2.7088022E-1,-2.7315676E-1,1.13741085E-2],"split_indices":[1,0,2,0,1,0,0,0,3,1,3,3,0,2,2,2,1,2,2,2,4,3,3,1,1,3,2,0,0,0,0,0,0,0,0,0,0,0,3,2,2,3,3,4,4,2,2,0,1,0,0,0,0,0,0,0,0,0,0,0,0,0,0,0,0,0,0,0,0,0,0,0,0,0,0,0,0,0,0,0,0,0,0],"split_type":[0,0,0,0,0,0,0,0,0,0,0,0,0,0,0,0,0,0,0,0,0,0,0,0,0,0,0,0,0,0,0,0,0,0,0,0,0,0,0,0,0,0,0,0,0,0,0,0,0,0,0,0,0,0,0,0,0,0,0,0,0,0,0,0,0,0,0,0,0,0,0,0,0,0,0,0,0,0,0,0,0,0,0],"sum_hessian":[4E2,1.37E2,2.63E2,9.2E1,4.5E1,2E0,2.61E2,8.4E1,8E0,1.1E1,3.4E1,1.7E2,9.1E1,7.9E1,5E0,3E0,5E0,6E0,5E0,1.8E1,1.6E1,1.7E1,1.53E2,1.5E1,7.6E1,6.4E1,1.5E1,1E0,4E0,1E0,2E0,3E0,2E0,3E0,3E0,4E0,1E0,9E0,9E0,1.1E1,5E0,8E0,9E0,1.9E1,1.34E2,8E0,7E0,3E0,7.3E1,4.5E1,1.9E1,7E0,8E0,3E0,1E0,1E0,2E0,2E0,1E0,4E0,5E0,5E0,4E0,8E0,3E0,2E0,3E0,6E0,2E0,7E0,2E0,7E0,1.2E1,1.7E1,1.17E2,5E0,3E0,2E0,5E0,2E0,1E0,2E0,7.1E1],"tree_param":{"num_deleted":"0","num_feature":"5","num_nodes":"83","size_leaf_vector":"1"}},{"base_weights":[-2.0191735E-3,-7.224223E-2,9.990221E-2,3.8570166E-1,-8.778902E-2,5.953601E-1,7.731926E-2,2.0375349E-2,1.2641904E-1,3.1632206E-1,-9.99712E-2,2.3644353E-1,2.5373507E-1,3.0016266E-2,2.4895321E-1,3.88189E-1,-1.7231941E-2,-5.434494E-1,-8.3238184E-2,9.9982455E-2,2.2673607E-3,1.0782079E-1,-6.777538E-2,3.0190793E-1,-3.5569727E-2,4.6613123E-2,1.3972521E-1,-6.5148133E-1,3.191614E-2,2.4893825E-1,-1.0209267E-1,5.582568E-2,5.678016E-1,-3.3394107E-1,4.7039412E-2,4.328668E-1,1.4209124E-1,-2.5062373E-2,-2.5858477E-1,2.6755048E-2,1.0509249E-1,-1.589609E-1,-2.6006114E-2,5.759916E-4,1.04017355E-1,2.5143445E-1,4.6661425E-2,-1.6213688E-1,-5.1649217E-2,3.7856273E-2,-8.559802E-2,6.782119E-2,1.8342125E-1,1.19149975E-1,2.1689285E-2],"categories":[],"categories_nodes":[],"categories_segments":[],"categories_sizes":[],"default_left":[0,0,0,0,0,0,0,0,0,0,0,0,0,0,0,0,0,0,0,0,0,0,0,0,0,0,0,0,0,0,0,0,0,0,0,0,0,0,0,0,0,0,0,0,0,0,0,0,0,0,0,0,0,0,0],"id":11,"left_children":[1,3,5,7,9,11,13,-1,-1,15,17,-1,19,21,23,25,-1,27,29,-1,-1,31,33,35,-1,-1,-1,37,-1,39,41,43,45,47,49,51,53,-1,-1,-1,-1,-1,-1,-1,-1,-1,-1,-1,-1,-1,-1,-1,-1,-1,-1],"loss_changes":[2.8772671E0,1.7283152E0,1.7889473E0,6.212628E-2,1.1688247E0,2.610414E-1,1.2752974E0,0E0,0E0,2.1032536E-1,1.6244278E0,0E0,7.580468E-2,9.5838666E-1,6.974993E-1,3.5976708E-2,0E0,6.30934E-1,1.3907523E0,0E0,0E0,1.6424747E0,1.7270551E0,5.66376E-1,0E0,0E0,0E0,7.647233E-1,0E0,1.6309041E-1,1.318233E0,1.0029252E0,6.4972305E-1,4.7491264E-1,1.0882516E0,4.5251298E-1,2.383253E-1,0E0,0E0,0E0,0E0,0E0,0E0,0E0,0E0,0E0,0E0,0E0,0E0,0E0,0E0,0E0,0E0,0E0,0E0],"parents":[2147483647,0,0,1,1,2,2,3,3,4,4,5,5,6,6,9,9,10,10,12,12,13,13,14,14,15,15,17,17,18,18,21,21,22,22,23,23,27,27,29,29,30,30,31,31,32,32,33,33,34,34,35,35,36,36],"right_children":[2,4,6,8,10,12,14,-1,-1,16,18,-1,20,22,24,26,-1,28,30,-1,-1,32,34,36,-1,-1,-1,38,-1,40,42,44,46,48,50,52,54,-1,-1,-1,-1,-1,-1,-1,-1,-1,-1,-1,-1,-1,-1,-1,-1,-1,-1],"split_conditions":[1.0790509E-1,-7.265165E-2,1.15012966E-1,-3.7861505E-1,1.116938E-1,-1.8288815E-1,4.2703456E-1,2.0375349E-2,1.2641904E-1,1.4797217E-1,1.2053762E-1,2.3644353E-1,1.938334E-1,4.33167E-1,6.116508E-1,-4.1813113E-2,-1.7231941E-2,5.7789112E1,1.4285259E-1,9.9982455E-2,2.2673607E-3,4.036838E-1,2.5527042E-1,4.756102E-1,-3.5569727E-2,4.6613123E-2,1.3972521E-1,1.1876945E-1,3.191614E-2,1.2553105E-1,1.538068E-1,5.5638958E-2,2.2950824E-1,-2.1138993E-1,3.8420647E-1,2.8104975E1,6.939409E0,-2.5062373E-2,-2.5858477E-1,2.6755048E-2,1.0509249E-1,-1.589609E-1,-2.6006114E-2,5.759916E-4,1.04017355E-1,2.5143445E-1,4.6661425E-2,-1.6213688E-1,-5.1649217E-2,3.7856273E-2,-8.559802E-2,6.782119E-2,1.8342125E-1,1.19149975E-1,2.1689285E-2],"split_indices":[1,0,1,1,3,2,1,0,0,2,3,0,3,0,0,1,0,4,3,0,0,0,1,1,0,0,0,3,0,3,3,2,1,2,1,4,4,0,0,0,0,0,0,0,0,0,0,0,0,0,0,0,0,0,0],"split_type":[0,0,0,0,0,0,0,0,0,0,0,0,0,0,0,0,0,0,0,0,0,0,0,0,0,0,0,0,0,0,0,0,0,0,0,0,0,0,0,0,0,0,0,0,0,0,0,0,0,0,0,0,0,0,0],"sum_hessian":[4E2,2.37E2,1.63E2,7E0,2.3E2,6E0,1.57E2,1E0,6E0,6E0,2.24E2,3E0,3E0,1.24E2,3.3E1,5E0,1E0,7E0,2.17E2,2E0,1E0,6.9E1,5.5E1,2.9E1,4E0,2E0,3E0,6E0,1E0,1.1E1,2.06E2,6.3E1,6E0,1.6E1,3.9E1,1.5E1,1.4E1,2E0,4E0,5E0,6E0,6E0,2E2,5.4E1,9E0,3E0,3E0,6E0,1E1,3.2E1,7E0,8E0,7E0,2E0,1.2E1],"tree_param":{"num_deleted":"0","num_feature":"5","num_nodes":"55","size_leaf_vector":"1"}},{"base_weights":[7.000374E-4,-1.0153684E-1,4.3176275E-2,-8.601553E-2,-2.8762951E-1,6.428717E-2,-1.781041E-1,-2.4124436E-2,-2.0917915E-1,7.7395864E-2,-2.3948202E-1,1.4032203E-1,-2.2450344E-1,-5.5770397E-2,2.6370478E-1,-4.5087275E-1,-1.3226232E-1,5.406088E-2,3.5825488E-1,-4.2277494E-1,-1.6275406E-2,3.8779974E-2,-3.3519542E-1,-1.8583506E-1,1.4294643E-3,8.572245E-2,1.0600491E-1,-4.8663175E-1,-2.4720097E-2,1.671789E-1,-2.4368444E-1,8.505328E-2,-1.574564E-1,8.7530136E-2,4.764717E-1,-1.18258476E-1,-2.0636159E-1,5.1555254E-2,-5.3314306E-2,-3.730256E-2,8.570366E-2,-4.696215E-1,-1.0477384E-2,-2.6177874E-2,-2.3431799E-1,1.5919848E-1,-5.930523E-3,3.5239983E-2,-1.4265061E-3,-8.2267284E-2,-2.2477084E-1,5.1622395E-4,1.12071425E-1,-1.383137E-1,4.369809E-2,2.043911E-2,1.6474858E-1,-1.6232519E-1,-2.328776E-2,9.930997E-2,-5.335665E-2,1.7833397E-1,1.8724967E-2,-5.9840586E-2,1.880579E-2,1.7196322E-2,4.2737965E-3,-6.2745094E-2,4.316125E-2,-1.6259943E-1,-2.15477E-2,-2.6850319E-2,1.5422917E-2],"categories":[],"categories_nodes":[],"categories_segments":[],"categories_sizes":[],"default_left":[0,0,0,0,0,0,0,0,0,0,0,0,0,0,0,0,0,0,0,0,0,0,0,0,0,0,0,0,0,0,0,0,0,0,0,0,0,0,0,0,0,0,0,0,0,0,0,0,0,0,0,0,0,0,0,0,0,0,0,0,0,0,0,0,0,0,0,0,0,0,0,0,0],"id":12,"left_children":[1,3,5,7,-1,9,11,13,15,17,19,-1,21,23,25,27,29,31,33,35,37,39,41,43,45,47,-1,49,-1,51,53,55,57,59,61,63,-1,65,-1,67,-1,69,71,-1,-1,-1,-1,-1,-1,-1,-1,-1,-1,-1,-1,-1,-1,-1,-1,-1,-1,-1,-1,-1,-1,-1,-1,-1,-1,-1,-1,-1,-1],"loss_changes":[1.7457818E0,1.4875573E0,1.338135E0,8.8681334E-1,0E0,1.0538595E0,8.541778E-1,7.342889E-1,6.6538835E-1,1.619093E0,4.4315326E-1,0E0,7.124398E-1,5.3592265E-1,9.735173E-2,7.848728E-2,1.0750344E0,1.5342516E0,5.6637406E-1,4.0301168E-1,7.486516E-2,1.609341E-1,7.3713934E-1,1.2226856E0,5.8263874E-1,1.2047084E-2,0E0,2.4077427E-1,0E0,3.0670106E-1,2.0136101E0,1.5569617E0,8.7675357E-1,5.1123166E-1,5.979221E-1,7.128197E-2,0E0,2.58998E-4,0E0,2.4803029E-1,0E0,3.0656385E-1,3.3944502E-2,0E0,0E0,0E0,0E0,0E0,0E0,0E0,0E0,0E0,0E0,0E0,0E0,0E0,0E0,0E0,0E0,0E0,0E0,0E0,0E0,0E0,0E0,0E0,0E0,0E0,0E0,0E0,0E0,0E0,0E0],"parents":[2147483647,0,0,1,1,2,2,3,3,5,5,6,6,7,7,8,8,9,9,10,10,12,12,13,13,14,14,15,15,16,16,17,17,18,18,19,19,20,20,21,21,22,22,23,23,24,24,25,25,27,27,29,29,30,30,31,31,32,32,33,33,34,34,35,35,37,37,39,39,41,41,42,42],"right_children":[2,4,6,8,-1,10,12,14,16,18,20,-1,22,24,26,28,30,32,34,36,38,40,42,44,46,48,-1,50,-1,52,54,56,58,60,62,64,-1,66,-1,68,-1,70,72,-1,-1,-1,-1,-1,-1,-1,-1,-1,-1,-1,-1,-1,-1,-1,-1,-1,-1,-1,-1,-1,-1,-1,-1,-1,-1,-1,-1,-1,-1],"split_conditions":[-1.9532086E-1,-1.9672485E-1,6.9278365E-1,5.904695E-1,-2.8762951E-1,9.385298E1,1.0299363E-1,-2.3688743E-1,2.585916E1,8.706885E1,9.7728E1,1.4032203E-1,2.5967083E1,2.0058371E-1,2.0160697E-1,7.879671E-1,4.4903877E1,7.601609E1,1.675499E-1,5.0330553E-2,5.060892E-1,3.6937577E-1,8.861818E1,1.8981501E-1,2.0812805E-1,1.845405E-1,1.0600491E-1,6.846052E-1,-2.4720097E-2,-5.837358E-2,6.863094E-1,7.3492584E1,7.752441E1,9.106057E1,3.4654927E-1,-1.4647095E-1,-2.0636159E-1,3.5651132E-1,-5.3314306E-2,1.5047227E1,8.570366E-2,3.1594694E-1,7.4925435E-1,-2.6177874E-2,-2.3431799E-1,1.5919848E-1,-5.930523E-3,3.5239983E-2,-1.4265061E-3,-8.2267284E-2,-2.2477084E-1,5.1622395E-4,1.12071425E-1,-1.383137E-1,4.369809E-2,2.043911E-2,1.6474858E-1,-1.6232519E-1,-2.328776E-2,9.930997E-2,-5.335665E-2,1.7833397E-1,1.8724967E-2,-5.9840586E-2,1.880579E-2,1.7196322E-2,4.2737965E-3,-6.2745094E-2,4.316125E-2,-1.6259943E-1,-2.15477E-2,-2.6850319E-2,1.5422917E-2],"split_indices":[1,1,0,0,0,4,3,1,4,4,4,0,4,3,0,0,4,4,1,0,0,3,4,3,3,0,0,0,0,2,0,4,4,4,3,2,0,0,0,4,0,1,0,0,0,0,0,0,0,0,0,0,0,0,0,0,0,0,0,0,0,0,0,0,0,0,0,0,0,0,0,0,0],"split_type":[0,0,0,0,0,0,0,0,0,0,0,0,0,0,0,0,0,0,0,0,0,0,0,0,0,0,0,0,0,0,0,0,0,0,0,0,0,0,0,0,0,0,0,0,0,0,0,0,0,0,0,0,0,0,0,0,0,0,0,0,0,0,0,0,0,0,0,0,0,0,0,0,0],"sum_hessian":[4E2,1.17E2,2.83E2,1.16E2,1E0,2.59E2,2.4E1,7.8E1,3.8E1,2.49E2,1E1,1E0,2.3E1,7.1E1,7E0,8E0,3E1,2.31E2,1.8E1,5E0,5E0,7E0,1.6E1,2.1E1,5E1,3E0,4E0,7E0,1E0,8E0,2.2E1,2.02E2,2.9E1,6E0,1.2E1,3E0,2E0,4E0,1E0,6E0,1E0,1.1E1,5E0,1.9E1,2E0,1E0,4.9E1,2E0,1E0,5E0,2E0,5E0,3E0,1.4E1,8E0,1.96E2,6E0,4E0,2.5E1,3E0,3E0,9E0,3E0,2E0,1E0,3E0,1E0,3E0,3E0,9E0,2E0,2E0,3E0],"tree_param":{"num_deleted":"0","num_feature":"5","num_nodes":"73","size_leaf_vector":"1"}},{"base_weights":[-9.929296E-4,-3.7183095E-2,8.0151096E-2,1.10955894E-1,-6.0386825E-2,1.0459018E-1,-2.0891342E-1,-1.7386492E-1,1.6979307E-1,-1.4094858E-1,-2.0971088E-2,4.9755756E-2,2.285044E-1,-5.4780245E-2,-1.6508923E-1,4.9445633E-2,-2.5778198E-1,1.0471427E-1,2.2919504E-1,-4.7838435E-2,-2.998337E-1,2.796146E-1,-4.888594E-2,1.1582072E-1,-1.11974396E-1,4.7340488E-1,6.227207E-2,-2.3619335E-3,-4.2407036E-2,7.9636894E-2,-1.339202E-1,2.3163438E-1,-3.7648138E-2,-1.6570331E-1,1.2843059E-1,-2.192783E-1,-2.2454561E-1,-3.249709E-2,4.5662075E-1,1.2307323E-2,-1.4347738E-1,2.906643E-1,2.3187589E-2,-3.7616444E-1,7.161725E-2,5.882284E-1,1.4907685E-1,-1.07361995E-1,1.2218027E-1,-3.130102E-2,3.8900375E-2,4.5124914E-2,-9.288311E-3,9.1892995E-2,-5.821896E-2,-3.48016E-2,2.976656E-2,-8.695466E-3,-1.2349419E-1,9.553075E-2,-6.603971E-2,-1.5209259E-1,-2.5980528E-2,5.9040528E-2,-1.7684871E-1,5.401764E-2,2.2719255E-1,-1.5902873E-2,5.987418E-2,2.0013846E-2,-8.388561E-2,9.185028E-3,1.3844338E-1,-7.959905E-3,1.09978296E-1,-1.87459E-1,-7.478714E-4,1.6538914E-3,1.0025902E-1,4.978821E-2,2.5262403E-1,-8.1025034E-2,9.641633E-2,1.5389376E-2,1.1786557E-1,1.3327074E-2,2.5211335E-3],"categories":[],"categories_nodes":[],"categories_segments":[],"categories_sizes":[],"default_left":[0,0,0,0,0,0,0,0,0,0,0,0,0,0,0,0,0,0,0,0,0,0,0,0,0,0,0,0,0,0,0,0,0,0,0,0,0,0,0,0,0,0,0,0,0,0,0,0,0,0,0,0,0,0,0,0,0,0,0,0,0,0,0,0,0,0,0,0,0,0,0,0,0,0,0,0,0,0,0,0,0,0,0,0,0,0,0],"id":13,"left_children":[1,3,5,7,9,11,13,15,17,19,21,23,25,27,-1,-1,29,31,-1,33,35,37,39,41,43,45,47,49,-1,51,-1,53,55,57,59,61,-1,63,65,67,69,71,73,75,77,79,81,-1,83,-1,85,-1,-1,-1,-1,-1,-1,-1,-1,-1,-1,-1,-1,-1,-1,-1,-1,-1,-1,-1,-1,-1,-1,-1,-1,-1,-1,-1,-1,-1,-1,-1,-1,-1,-1,-1,-1],"loss_changes":[1.1805632E0,9.62291E-1,8.978447E-1,6.66327E-1,7.623158E-1,7.7002835E-1,4.960406E-1,2.4143669E-1,1.1574142E0,1.1543676E0,1.3813705E0,8.784294E-1,1.3953835E0,3.5971694E-2,0E0,0E0,4.174109E-1,5.507802E-1,0E0,1.0808536E0,8.8397145E-1,7.8827846E-1,8.7001956E-1,9.326461E-1,1.1910139E0,4.3367577E-1,5.9746844E-1,2.9305033E-2,0E0,2.814124E-2,0E0,5.68071E-1,1.7238149E-1,1.0304458E0,1.4609022E0,9.4853175E-1,0E0,8.823285E-1,6.1206913E-1,1.1359338E0,1.7069727E0,8.7426424E-1,6.7562807E-1,9.277592E-1,2.58522E-1,9.3218136E-1,4.47931E-1,0E0,3.6360985E-1,0E0,4.6886876E-4,0E0,0E0,0E0,0E0,0E0,0E0,0E0,0E0,0E0,0E0,0E0,0E0,0E0,0E0,0E0,0E0,0E0,0E0,0E0,0E0,0E0,0E0,0E0,0E0,0E0,0E0,0E0,0E0,0E0,0E0,0E0,0E0,0E0,0E0,0E0,0E0],"parents":[2147483647,0,0,1,1,2,2,3,3,4,4,5,5,6,6,7,7,8,8,9,9,10,10,11,11,12,12,13,13,16,16,17,17,19,19,20,20,21,21,22,22,23,23,24,24,25,25,26,26,27,27,29,29,31,31,32,32,33,33,34,34,35,35,37,37,38,38,39,39,40,40,41,41,42,42,43,43,44,44,45,45,46,46,48,48,50,50],"right_children":[2,4,6,8,10,12,14,16,18,20,22,24,26,28,-1,-1,30,32,-1,34,36,38,40,42,44,46,48,50,-1,52,-1,54,56,58,60,62,-1,64,66,68,70,72,74,76,78,80,82,-1,84,-1,86,-1,-1,-1,-1,-1,-1,-1,-1,-1,-1,-1,-1,-1,-1,-1,-1,-1,-1,-1,-1,-1,-1,-1,-1,-1,-1,-1,-1,-1,-1,-1,-1,-1,-1,-1,-1],"split_conditions":[1.9495109E-1,-7.741245E-3,9.385298E1,1.4924947E1,2.0515616E-1,-1.0090579E-3,2.1021722E-1,2.8652427E0,1.4232552E-1,1.6894802E-1,2.2290131E-1,-8.713259E-2,1.0486853E-1,-1.5338735E-1,-1.6508923E-1,4.9445633E-2,1.8771493E-1,5.7685738E1,2.2919504E-1,-1.9514717E-2,6.107287E-1,-2.3391141E-1,-3.884594E-2,1.9124919E-1,3.4070304E-1,4.299852E1,1.16083816E-1,-3.8598874E-1,-4.2407036E-2,-7.787178E-2,-1.339202E-1,9.034769E-2,3.1064382E-1,-1.1077537E-1,6.168836E-1,1.8177887E1,-2.2454561E-1,-2.5181273E-1,5.7780704E1,3.531013E-2,3.0328588E1,4.7171485E-2,9.02413E1,3.3194494E-1,8.260647E1,1.6820366E1,7.201974E-3,-1.07361995E-1,1.78686E-1,-3.130102E-2,3.5651132E-1,4.5124914E-2,-9.288311E-3,9.1892995E-2,-5.821896E-2,-3.48016E-2,2.976656E-2,-8.695466E-3,-1.2349419E-1,9.553075E-2,-6.603971E-2,-1.5209259E-1,-2.5980528E-2,5.9040528E-2,-1.7684871E-1,5.401764E-2,2.2719255E-1,-1.5902873E-2,5.987418E-2,2.0013846E-2,-8.388561E-2,9.185028E-3,1.3844338E-1,-7.959905E-3,1.09978296E-1,-1.87459E-1,-7.478714E-4,1.6538914E-3,1.0025902E-1,4.978821E-2,2.5262403E-1,-8.1025034E-2,9.641633E-2,1.5389376E-2,1.1786557E-1,1.3327074E-2,2.5211335E-3],"split_indices":[1,0,4,4,3,2,3,4,1,3,3,2,2,2,0,0,3,4,0,2,0,2,2,0,1,4,2,2,0,0,0,1,3,2,0,4,0,2,4,1,4,0,4,0,4,4,2,0,2,0,0,0,0,0,0,0,0,0,0,0,0,0,0,0,0,0,0,0,0,0,0,0,0,0,0,0,0,0,0,0,0,0,0,0,0,0,0],"split_type":[0,0,0,0,0,0,0,0,0,0,0,0,0,0,0,0,0,0,0,0,0,0,0,0,0,0,0,0,0,0,0,0,0,0,0,0,0,0,0,0,0,0,0,0,0,0,0,0,0,0,0,0,0,0,0,0,0,0,0,0,0,0,0,0,0,0,0,0,0,0,0,0,0,0,0,0,0,0,0,0,0,0,0,0,0,0,0],"sum_hessian":[4E2,2.77E2,1.23E2,3.7E1,2.4E2,1.14E2,9E0,6E0,3.1E1,7.8E1,1.62E2,8E1,3.4E1,7E0,2E0,1E0,5E0,2.9E1,2E0,5E1,2.8E1,1.3E1,1.49E2,5.7E1,2.3E1,1.3E1,2.1E1,5E0,2E0,2E0,3E0,1.5E1,1.4E1,3E1,2E1,2.5E1,3E0,5E0,8E0,9.1E1,5.8E1,1.9E1,3.8E1,9E0,1.4E1,9E0,4E0,2E0,1.9E1,1E0,4E0,1E0,1E0,1.3E1,2E0,9E0,5E0,2E1,1E1,1.3E1,7E0,7E0,1.8E1,4E0,1E0,5E0,3E0,6.8E1,2.3E1,2.3E1,3.5E1,8E0,1.1E1,3.4E1,4E0,5E0,4E0,1.2E1,2E0,4E0,5E0,1E0,3E0,1.6E1,3E0,3E0,1E0],"tree_param":{"num_deleted":"0","num_feature":"5","num_nodes":"87","size_leaf_vector":"1"}},{"base_weights":[-3.670457E-4,1.1749501E-1,-5.303364E-3,1.773663E-2,-9.5406756E-2,5.309457E-3,3.331515E-1,-1.5697627E-1,4.8787996E-2,8.465038E-2,-3.9650504E-2,4.8824692E-1,1.526195E-1,-9.525979E-2,-3.3972973E-1,4.1857275E-1,-6.458683E-2,-6.611098E-3,2.1864747E-1,-5.103817E-1,-1.9515583E-2,1.8739128E-1,4.3093108E-2,-3.8063623E-2,2.8979453E-1,-7.373711E-3,-2.4859959E-1,5.3740818E-2,-4.0978655E-1,1.4019643E-1,2.6224423E-2,-4.6222076E-1,6.371045E-2,-5.012026E-2,3.6071703E-2,-3.0022003E-2,8.3997816E-2,-2.5919884E-1,1.7769529E-2,1.1912217E-2,-3.764447E-2,1.13689475E-1,-1.0033036E-2,-3.599998E-2,9.098104E-2,6.4768554E-3,-9.37835E-2,-7.80716E-3,3.1990528E-2,5.8979993E-3,-1.3518433E-1,-1.9082032E-1,-4.0290073E-2,1.0704232E-1,-3.0585794E-2],"categories":[],"categories_nodes":[],"categories_segments":[],"categories_sizes":[],"default_left":[0,0,0,0,0,0,0,0,0,0,0,0,0,0,0,0,0,0,0,0,0,0,0,0,0,0,0,0,0,0,0,0,0,0,0,0,0,0,0,0,0,0,0,0,0,0,0,0,0,0,0,0,0,0,0],"id":14,"left_children":[1,-1,3,5,7,9,11,13,15,17,19,21,23,25,27,29,31,33,35,37,39,-1,-1,-1,41,43,45,47,49,-1,-1,51,53,-1,-1,-1,-1,-1,-1,-1,-1,-1,-1,-1,-1,-1,-1,-1,-1,-1,-1,-1,-1,-1,-1],"loss_changes":[7.7806056E-1,0E0,8.2585686E-1,1.2407808E0,7.267765E-1,1.094909E0,2.614802E-1,6.1053467E-1,1.0751414E0,1.3588393E0,1.847754E0,1.9227874E-1,3.0515003E-1,5.9113E-1,4.0793645E-1,5.6010127E-2,1.0497553E0,1.3838004E0,9.0786004E-1,1.6625645E0,1.1910748E0,0E0,0E0,0E0,1.5679011E-1,1.0510049E0,2.8347492E-1,1.5432344E-2,2.192595E-1,0E0,0E0,1.9961596E-1,8.132639E-1,0E0,0E0,0E0,0E0,0E0,0E0,0E0,0E0,0E0,0E0,0E0,0E0,0E0,0E0,0E0,0E0,0E0,0E0,0E0,0E0,0E0,0E0],"parents":[2147483647,0,0,2,2,3,3,4,4,5,5,6,6,7,7,8,8,9,9,10,10,11,11,12,12,13,13,14,14,15,15,16,16,17,17,18,18,19,19,20,20,24,24,25,25,26,26,27,27,28,28,31,31,32,32],"right_children":[2,-1,4,6,8,10,12,14,16,18,20,22,24,26,28,30,32,34,36,38,40,-1,-1,-1,42,44,46,48,50,-1,-1,52,54,-1,-1,-1,-1,-1,-1,-1,-1,-1,-1,-1,-1,-1,-1,-1,-1,-1,-1,-1,-1,-1,-1],"split_conditions":[1.0299363E-1,1.1749501E-1,6.2590504E-1,6.107287E-1,3.2267594E-1,3.4131866E1,-2.6480985E-1,2.1580264E-2,3.4423772E-1,2.20446E1,3.7345795E1,3.931039E1,3.9289513E1,2.3749708E-1,1.2553105E-1,7.2876304E-1,6.6009444E-1,2.3538823E-1,-3.1552374E-1,1.3315138E-1,2.907821E-1,1.8739128E-1,4.3093108E-2,-3.8063623E-2,-3.9460503E-2,2.1193679E-1,-4.2874327E-1,6.6427606E-1,6.6427606E-1,1.4019643E-1,2.6224423E-2,3.5299784E-1,6.8201447E-1,-5.012026E-2,3.6071703E-2,-3.0022003E-2,8.3997816E-2,-2.5919884E-1,1.7769529E-2,1.1912217E-2,-3.764447E-2,1.13689475E-1,-1.0033036E-2,-3.599998E-2,9.098104E-2,6.4768554E-3,-9.37835E-2,-7.80716E-3,3.1990528E-2,5.8979993E-3,-1.3518433E-1,-1.9082032E-1,-4.0290073E-2,1.0704232E-1,-3.0585794E-2],"split_indices":[3,0,0,0,3,4,2,2,3,4,4,4,4,3,3,0,0,3,1,1,3,0,0,0,1,3,1,0,0,0,0,3,0,0,0,0,0,0,0,0,0,0,0,0,0,0,0,0,0,0,0,0,0,0,0],"split_type":[0,0,0,0,0,0,0,0,0,0,0,0,0,0,0,0,0,0,0,0,0,0,0,0,0,0,0,0,0,0,0,0,0,0,0,0,0,0,0,0,0,0,0,0,0,0,0,0,0,0,0,0,0,0,0],"sum_hessian":[4E2,4E0,3.96E2,3.16E2,8E1,3.05E2,1.1E1,5.6E1,2.4E1,1.1E2,1.95E2,5E0,6E0,4.3E1,1.3E1,5E0,1.9E1,6.6E1,4.4E1,7E0,1.88E2,3E0,2E0,2E0,4E0,2.8E1,1.5E1,2E0,1.1E1,4E0,1E0,4E0,1.5E1,2.9E1,3.7E1,7E0,3.7E1,4E0,3E0,1.21E2,6.7E1,3E0,1E0,2.1E1,7E0,3E0,1.2E1,1E0,1E0,1E0,1E1,2E0,2E0,5E0,1E1],"tree_param":{"num_deleted":"0","num_feature":"5","num_nodes":"55","size_leaf_vector":"1"}},{"base_weights":[-1.0523475E-4,-2.0701144E-2,8.027033E-2,1.3548583E-2,-1.8966366E-1,1.8172802E-1,2.7159674E-2,-7.4061546E-3,1.7933789E-1,1.3159027E-2,-3.5236043E-1,3.3614388E-1,3.301893E-3,-4.752306E-2,1.9689302E-1,6.772703E-3,-1.921297E-1,-3.2154274E-1,2.4690028E-1,-2.696758E-1,1.6212104E-1,-4.663872E-1,-1.1300624E-1,-2.1947436E-2,2.2455795E-1,-2.423378E-1,1.2579155E-1,-1.16246134E-1,1.944701E-1,2.3630822E-1,-6.506252E-2,-9.255741E-2,3.5441678E-2,-4.220326E-1,1.10055925E-2,-1.1650353E-1,-1.8170357E-2,-1.24083996E-1,2.9844347E-1,-2.2950362E-2,-4.6246606E-1,4.3308982E-1,4.543143E-2,-6.378126E-2,-5.336835E-1,-3.7485376E-1,-1.3167487E-2,1.6058692E-1,-2.0009232E-1,2.117157E-5,-9.088726E-2,-2.5783157E-2,1.8946838E-1,-2.2588037E-2,-3.1066933E-1,2.703168E-1,-1.4198685E-2,-1.3741493E-2,3.512164E-1,-5.1916656E-3,-5.200776E-2,-6.9630295E-3,2.8930975E-2,2.4230005E-2,-1.8092804E-1,1.3795757E-1,-4.7606993E-2,5.0876237E-2,-1.5076476E-1,1.0694699E-1,1.9706727E-3,-2.4919225E-2,3.2625675E-2,-1.6848193E-1,-9.885693E-3,1.632291E-1,-1.6407968E-3,2.5966853E-2,-3.6150932E-2,-4.3391228E-2,2.6818085E-2,-2.0730673E-1,-8.108983E-2,-1.8910362E-1,2.0419408E-2,6.7924266E-3,-4.4945814E-2,7.929325E-3,5.6255437E-2,-4.9447063E-3,-7.256227E-2,8.214922E-2,-1.2723733E-2,5.224736E-2,-3.7803993E-2,-1.8089505E-1,-4.588795E-3,5.7924273E-3,9.268008E-2,-5.8647733E-2,3.7802126E-2,1.01826675E-2,1.3978544E-1],"categories":[],"categories_nodes":[],"categories_segments":[],"categories_sizes":[],"default_left":[0,0,0,0,0,0,0,0,0,0,0,0,0,0,0,0,0,0,0,0,0,0,0,0,0,0,0,0,0,0,0,0,0,0,0,0,0,0,0,0,0,0,0,0,0,0,0,0,0,0,0,0,0,0,0,0,0,0,0,0,0,0,0,0,0,0,0,0,0,0,0,0,0,0,0,0,0,0,0,0,0,0,0,0,0,0,0,0,0,0,0,0,0,0,0,0,0,0,0,0,0,0,0],"id":15,"left_children":[1,3,5,7,9,11,13,15,17,19,21,23,25,27,29,31,33,35,37,39,41,43,45,47,-1,49,51,53,55,57,-1,59,61,63,65,-1,-1,67,69,71,73,75,77,79,81,83,85,87,89,-1,-1,-1,91,93,95,97,-1,99,101,-1,-1,-1,-1,-1,-1,-1,-1,-1,-1,-1,-1,-1,-1,-1,-1,-1,-1,-1,-1,-1,-1,-1,-1,-1,-1,-1,-1,-1,-1,-1,-1,-1,-1,-1,-1,-1,-1,-1,-1,-1,-1,-1,-1],"loss_changes":[6.654801E-1,1.854384E0,4.369201E-1,9.2890525E-1,1.7865609E0,7.703411E-1,7.0654523E-1,6.246634E-1,1.0946097E0,1.0970113E0,7.6607895E-1,2.2314873E0,4.5172054E-1,6.7119634E-1,3.2849813E-1,6.354682E-1,7.985684E-1,4.6213716E-2,5.5331826E-1,4.174826E-1,5.178512E-1,5.078387E-1,2.82632E-1,3.2479024E-1,0E0,7.349503E-2,1.5111004E-1,5.5747104E-1,1.7785075E-1,4.6455038E-1,0E0,3.010241E-1,6.211387E-1,7.770082E-1,8.3465856E-1,0E0,0E0,5.298037E-1,4.042735E-1,4.8619077E-2,1.9440448E-1,2.4639183E-1,9.914249E-2,6.2470205E-2,5.177059E-1,3.8239005E-1,4.7432315E-2,1.3108581E-2,3.4371212E-2,0E0,0E0,0E0,1.6810995E-1,4.6961316E-1,8.5419476E-1,6.1887145E-2,0E0,1.7703003E-1,3.8461173E-1,0E0,0E0,0E0,0E0,0E0,0E0,0E0,0E0,0E0,0E0,0E0,0E0,0E0,0E0,0E0,0E0,0E0,0E0,0E0,0E0,0E0,0E0,0E0,0E0,0E0,0E0,0E0,0E0,0E0,0E0,0E0,0E0,0E0,0E0,0E0,0E0,0E0,0E0,0E0,0E0,0E0,0E0,0E0,0E0],"parents":[2147483647,0,0,1,1,2,2,3,3,4,4,5,5,6,6,7,7,8,8,9,9,10,10,11,11,12,12,13,13,14,14,15,15,16,16,17,17,18,18,19,19,20,20,21,21,22,22,23,23,25,25,26,26,27,27,28,28,29,29,31,31,32,32,33,33,34,34,37,37,38,38,39,39,40,40,41,41,42,42,43,43,44,44,45,45,46,46,47,47,48,48,52,52,53,53,54,54,55,55,57,57,58,58],"right_children":[2,4,6,8,10,12,14,16,18,20,22,24,26,28,30,32,34,36,38,40,42,44,46,48,-1,50,52,54,56,58,-1,60,62,64,66,-1,-1,68,70,72,74,76,78,80,82,84,86,88,90,-1,-1,-1,92,94,96,98,-1,100,102,-1,-1,-1,-1,-1,-1,-1,-1,-1,-1,-1,-1,-1,-1,-1,-1,-1,-1,-1,-1,-1,-1,-1,-1,-1,-1,-1,-1,-1,-1,-1,-1,-1,-1,-1,-1,-1,-1,-1,-1,-1,-1,-1,-1],"split_conditions":[3.34588E-1,2.9623982E-1,3.976844E1,2.7495724E-1,3.508191E1,-1.0739976E-1,8.329297E1,2.6703548E-1,-3.6931878E-1,3.0884683E-1,7.694489E1,-1.9374637E-1,-8.102326E-3,9.271897E-2,9.467562E1,-2.9596436E-1,-1.7729655E-1,1.0700795E-1,6.697296E-2,-1.0864618E-1,3.126297E-1,-4.229417E-1,-3.3518454E-1,1.9267106E-1,2.2455795E-1,-6.390173E-2,6.723418E0,-3.8234275E-2,6.8132806E-1,-1.6291736E-1,-6.506252E-2,5.730422E1,1.8595587E-1,-1.3169047E-1,-9.6875936E-2,-1.1650353E-1,-1.8170357E-2,2.568613E-2,3.0007097E-1,2.566178E-1,7.187227E-2,4.647549E-1,5.598017E-1,-4.741881E-1,2.3566312E-1,5.259205E-1,3.299545E-1,-4.229417E-1,-4.008219E-1,2.117157E-5,-9.088726E-2,-2.5783157E-2,2.3333282E1,-2.0127442E-1,3.5576424E-1,-1.3776456E-1,-1.4198685E-2,9.02413E1,-1.9672485E-1,-5.1916656E-3,-5.200776E-2,-6.9630295E-3,2.8930975E-2,2.4230005E-2,-1.8092804E-1,1.3795757E-1,-4.7606993E-2,5.0876237E-2,-1.5076476E-1,1.0694699E-1,1.9706727E-3,-2.4919225E-2,3.2625675E-2,-1.6848193E-1,-9.885693E-3,1.632291E-1,-1.6407968E-3,2.5966853E-2,-3.6150932E-2,-4.3391228E-2,2.6818085E-2,-2.0730673E-1,-8.108983E-2,-1.8910362E-1,2.0419408E-2,6.7924266E-3,-4.4945814E-2,7.929325E-3,5.6255437E-2,-4.9447063E-3,-7.256227E-2,8.214922E-2,-1.2723733E-2,5.224736E-2,-3.7803993E-2,-1.8089505E-1,-4.588795E-3,5.7924273E-3,9.268008E-2,-5.8647733E-2,3.7802126E-2,1.01826675E-2,1.3978544E-1],"split_indices":[3,3,4,3,4,2,4,3,2,3,4,1,2,2,4,1,2,0,0,2,3,1,2,0,0,0,4,2,0,2,0,4,3,1,2,0,0,0,1,0,1,0,0,1,1,0,3,1,1,0,0,0,4,1,3,1,0,4,1,0,0,0,0,0,0,0,0,0,0,0,0,0,0,0,0,0,0,0,0,0,0,0,0,0,0,0,0,0,0,0,0,0,0,0,0,0,0,0,0,0,0,0,0],"split_type":[0,0,0,0,0,0,0,0,0,0,0,0,0,0,0,0,0,0,0,0,0,0,0,0,0,0,0,0,0,0,0,0,0,0,0,0,0,0,0,0,0,0,0,0,0,0,0,0,0,0,0,0,0,0,0,0,0,0,0,0,0,0,0,0,0,0,0,0,0,0,0,0,0,0,0,0,0,0,0,0,0,0,0,0,0,0,0,0,0,0,0,0,0,0,0,0,0,0,0,0,0,0,0],"sum_hessian":[4E2,3.19E2,8.1E1,2.66E2,5.3E1,2.7E1,5.4E1,2.37E2,2.9E1,2.4E1,2.9E1,1.4E1,1.3E1,3.8E1,1.6E1,2.21E2,1.6E1,3E0,2.6E1,8E0,1.6E1,1.9E1,1E1,8E0,6E0,4E0,9E0,3E1,8E0,1.5E1,1E0,4.9E1,1.72E2,7E0,9E0,2E0,1E0,3E0,2.3E1,4E0,4E0,4E0,1.2E1,3E0,1.6E1,2E0,8E0,4E0,4E0,1E0,3E0,2E0,7E0,2.1E1,9E0,6E0,2E0,5E0,1E1,2.6E1,2.3E1,8.8E1,8.4E1,2E0,5E0,2E0,7E0,2E0,1E0,1.9E1,4E0,3E0,1E0,3E0,1E0,3E0,1E0,1E1,2E0,2E0,1E0,9E0,7E0,1E0,1E0,7E0,1E0,1E0,3E0,1E0,3E0,5E0,2E0,7E0,1.4E1,4E0,5E0,1E0,5E0,2E0,3E0,3E0,7E0],"tree_param":{"num_deleted":"0","num_feature":"5","num_nodes":"103","size_leaf_vector":"1"}},{"base_weights":[-1.6121044E-3,2.7791914E-1,-5.8433553E-3,2.2708226E-2,9.09676E-2,-1.7040999E-1,4.2926767E-3,4.663658E-2,-3.7325573E-1,1.5844892E-1,-5.7922276E-3,7.082291E-2,-1.4859009E-2,-4.851481E-1,-2.8183937E-2,2.3030281E-2,2.806635E-1,5.254994E-3,-1.6404401E-1,-4.898892E-2,4.2662382E-2,-6.1870736E-1,-4.9056675E-2,4.184504E-2,-1.3056755E-1,7.10262E-2,-7.573872E-2,-2.3314763E-2,3.203085E-1,-1.1385264E-2,9.651023E-2,-3.739578E-1,-1.0016964E-1,2.5797272E-2,-6.6491608E-3,-2.1317345E-1,-2.390299E-2,-4.994688E-2,-8.808518E-3,6.506224E-2,1.0426197E-2,4.475403E-3,1.1595465E-1,-1.2673417E-3,-1.01307206E-1,1.5417267E-2,7.165966E-2,-1.552723E-1,-3.170662E-2,-1.0845795E-1,-1.9118119E-3],"categories":[],"categories_nodes":[],"categories_segments":[],"categories_sizes":[],"default_left":[0,0,0,0,0,0,0,0,0,0,0,0,0,0,0,0,0,0,0,0,0,0,0,0,0,0,0,0,0,0,0,0,0,0,0,0,0,0,0,0,0,0,0,0,0,0,0,0,0,0,0],"id":16,"left_children":[1,3,5,-1,-1,7,9,11,13,15,17,-1,19,21,23,25,27,29,31,-1,33,35,-1,-1,37,39,-1,-1,41,43,45,47,49,-1,-1,-1,-1,-1,-1,-1,-1,-1,-1,-1,-1,-1,-1,-1,-1,-1,-1],"loss_changes":[4.7591344E-1,7.752955E-3,6.612804E-1,0E0,0E0,1.0300279E0,5.823573E-1,1.433044E-1,4.4965732E-1,3.741892E-1,6.1624336E-1,0E0,9.234986E-2,2.8543282E-1,8.687759E-2,1.7660171E-1,1.953885E-1,5.022073E-1,2.7092743E-1,0E0,2.4376499E-2,2.4051046E-1,0E0,0E0,6.0181394E-3,5.0655246E-2,0E0,0E0,2.1664286E-1,6.528228E-1,3.152964E-1,1.3793755E-1,4.63471E-1,0E0,0E0,0E0,0E0,0E0,0E0,0E0,0E0,0E0,0E0,0E0,0E0,0E0,0E0,0E0,0E0,0E0,0E0],"parents":[2147483647,0,0,1,1,2,2,5,5,6,6,7,7,8,8,9,9,10,10,12,12,13,13,14,14,15,15,16,16,17,17,18,18,20,20,21,21,24,24,25,25,28,28,29,29,30,30,31,31,32,32],"right_children":[2,4,6,-1,-1,8,10,12,14,16,18,-1,20,22,24,26,28,30,32,-1,34,36,-1,-1,38,40,-1,-1,42,44,46,48,50,-1,-1,-1,-1,-1,-1,-1,-1,-1,-1,-1,-1,-1,-1,-1,-1,-1,-1],"split_conditions":[1.0431443E-1,-3.3518517E-1,1.2053762E-1,2.2708226E-2,9.09676E-2,1.1559681E-1,1.4285259E-1,-2.787906E-1,-3.5746254E-2,1.2847538E-1,7.2876304E-1,7.082291E-2,-1.6947597E-1,4.792199E-1,-2.5956426E-2,1.2738734E-1,-4.906684E-1,3.5299784E-1,2.0444838E1,-4.898892E-2,3.3996192E-1,2.3743376E-1,-4.9056675E-2,4.184504E-2,-3.4797803E-2,-3.784986E-1,-7.573872E-2,-2.3314763E-2,3.1387808E1,3.4654927E-1,3.1612173E-2,-9.2407145E-2,7.4925435E-1,2.5797272E-2,-6.6491608E-3,-2.1317345E-1,-2.390299E-2,-4.994688E-2,-8.808518E-3,6.506224E-2,1.0426197E-2,4.475403E-3,1.1595465E-1,-1.2673417E-3,-1.01307206E-1,1.5417267E-2,7.165966E-2,-1.552723E-1,-3.170662E-2,-1.0845795E-1,-1.9118119E-3],"split_indices":[3,1,3,0,0,3,3,2,2,3,0,0,2,0,2,2,1,3,4,0,0,1,0,0,0,1,0,0,4,3,2,2,0,0,0,0,0,0,0,0,0,0,0,0,0,0,0,0,0,0,0],"split_type":[0,0,0,0,0,0,0,0,0,0,0,0,0,0,0,0,0,0,0,0,0,0,0,0,0,0,0,0,0,0,0,0,0,0,0,0,0,0,0,0,0,0,0,0,0,0,0,0,0,0,0],"sum_hessian":[4E2,5E0,3.95E2,1E0,4E0,2.2E1,3.73E2,1.1E1,1.1E1,2.2E1,3.51E2,2E0,9E0,8E0,3E0,1.1E1,1.1E1,3.29E2,2.2E1,2E0,7E0,5E0,3E0,1E0,2E0,1E1,1E0,1E0,1E1,2.79E2,5E1,4E0,1.8E1,4E0,3E0,4E0,1E0,1E0,1E0,1E0,9E0,2E0,8E0,2.74E2,5E0,3.9E1,1.1E1,2E0,2E0,4E0,1.4E1],"tree_param":{"num_deleted":"0","num_feature":"5","num_nodes":"51","size_leaf_vector":"1"}},{"base_weights":[-2.0376951E-3,3.5173032E-2,-2.6377069E-2,2.0844283E-2,2.3199598E-1,-3.7959653E-1,-1.1169499E-2,-5.0639086E-3,1.4577498E-1,-5.926554E-1,9.452782E-2,1.837309E-1,-1.64744E-2,3.809725E-2,-1.455224E-1,2.2198823E-1,1.47386035E-2,-1.6932106E-1,-2.11664E-1,2.1849984E-2,-5.274528E-2,-1.9707346E-1,5.7706486E-2,4.9675856E-2,-2.4083945E-1,-1.5367985E-2,2.7394798E-1,3.0682692E-1,-8.426179E-2,-1.1715603E-2,-6.4478874E-2,4.0890567E-2,-1.8026114E-1,-3.8189507E-1,-1.6024703E-2,-2.0947076E-2,-1.1576462E-1,-2.4329595E-2,2.9624302E-2,4.716511E-2,-3.0912638E-3,2.3320341E-2,-8.947611E-2,-4.245472E-2,2.2155952E-2,-2.4751855E-2,9.231425E-2,1.528945E-1,-1.4822388E-2,3.889761E-2,-3.8162757E-2,-1.35750435E-2,2.5946803E-2,-9.2621185E-2,2.9887392E-3,-2.4488641E-2,-1.418742E-1,1.6090822E-1,-1.10154785E-2],"categories":[],"categories_nodes":[],"categories_segments":[],"categories_sizes":[],"default_left":[0,0,0,0,0,0,0,0,0,0,0,0,0,0,0,0,0,0,0,0,0,0,0,0,0,0,0,0,0,0,0,0,0,0,0,0,0,0,0,0,0,0,0,0,0,0,0,0,0,0,0,0,0,0,0,0,0,0,0],"id":17,"left_children":[1,3,5,7,-1,9,11,13,15,17,-1,-1,19,21,23,25,27,29,-1,31,33,35,37,39,41,43,45,47,49,-1,-1,51,53,55,57,-1,-1,-1,-1,-1,-1,-1,-1,-1,-1,-1,-1,-1,-1,-1,-1,-1,-1,-1,-1,-1,-1,-1,-1],"loss_changes":[3.6410776E-1,1.6655793E0,1.3010613E0,5.089046E-1,0E0,1.6668389E0,7.8420067E-1,7.9971194E-1,2.6636934E-1,2.628622E-1,0E0,0E0,3.2503623E-1,4.7713578E-1,5.8874124E-1,2.1387058E-1,3.4393921E-1,9.430699E-3,0E0,4.4607872E-1,1.4442685E0,1.652633E-1,5.4350066E-1,7.257359E-2,4.0728903E-1,5.547158E-2,1.9389367E-1,2.4193686E-1,9.917973E-2,0E0,0E0,4.1634429E-1,2.4746773E-1,2.893554E-1,1.2656535E0,0E0,0E0,0E0,0E0,0E0,0E0,0E0,0E0,0E0,0E0,0E0,0E0,0E0,0E0,0E0,0E0,0E0,0E0,0E0,0E0,0E0,0E0,0E0,0E0],"parents":[2147483647,0,0,1,1,2,2,3,3,5,5,6,6,7,7,8,8,9,9,12,12,13,13,14,14,15,15,16,16,17,17,19,19,20,20,21,21,22,22,23,23,24,24,25,25,26,26,27,27,28,28,31,31,32,32,33,33,34,34],"right_children":[2,4,6,8,-1,10,12,14,16,18,-1,-1,20,22,24,26,28,30,-1,32,34,36,38,40,42,44,46,48,50,-1,-1,52,54,56,58,-1,-1,-1,-1,-1,-1,-1,-1,-1,-1,-1,-1,-1,-1,-1,-1,-1,-1,-1,-1,-1,-1,-1,-1],"split_conditions":[2.7775458E-1,2.676079E-1,2.993752E-1,5.5638958E-2,2.3199598E-1,3.026433E-1,3.0077472E-1,-4.6761088E-2,1.330422E-1,-2.5879854E-1,9.452782E-2,1.837309E-1,5.0127563E1,-4.044647E-1,-2.092015E-2,1.2847538E-1,5.668043E0,2.8356317E-1,-2.11664E-1,7.6008636E-1,5.481452E1,5.6505725E-2,2.20446E1,-7.787178E-2,1.2009209E-1,-3.4797803E-2,-4.5682627E-1,4.4683907E-2,-4.2211957E-2,-1.1715603E-2,-6.4478874E-2,2.1144018E-1,7.879671E-1,1.6067626E-1,5.561907E1,-2.0947076E-2,-1.1576462E-1,-2.4329595E-2,2.9624302E-2,4.716511E-2,-3.0912638E-3,2.3320341E-2,-8.947611E-2,-4.245472E-2,2.2155952E-2,-2.4751855E-2,9.231425E-2,1.528945E-1,-1.4822388E-2,3.889761E-2,-3.8162757E-2,-1.35750435E-2,2.5946803E-2,-9.2621185E-2,2.9887392E-3,-2.4488641E-2,-1.418742E-1,1.6090822E-1,-1.10154785E-2],"split_indices":[0,0,0,2,0,1,0,2,2,1,0,0,4,1,0,3,4,0,0,0,4,0,4,0,3,0,1,0,0,0,0,3,0,3,4,0,0,0,0,0,0,0,0,0,0,0,0,0,0,0,0,0,0,0,0,0,0,0,0],"split_type":[0,0,0,0,0,0,0,0,0,0,0,0,0,0,0,0,0,0,0,0,0,0,0,0,0,0,0,0,0,0,0,0,0,0,0,0,0,0,0,0,0,0,0,0,0,0,0,0,0,0,0,0,0,0,0,0,0,0,0],"sum_hessian":[4E2,1.58E2,2.42E2,1.56E2,2E0,9E0,2.33E2,1.3E2,2.6E1,7E0,2E0,1E0,2.32E2,1E2,3E1,1.6E1,1E1,2E0,5E0,1.13E2,1.19E2,7E0,9.3E1,1E1,2E1,3E0,1.3E1,2E0,8E0,1E0,1E0,1.04E2,9E0,1.1E1,1.08E2,5E0,2E0,2.1E1,7.2E1,3E0,7E0,3E0,1.7E1,1E0,2E0,1E0,1.2E1,1E0,1E0,1E0,7E0,3.6E1,6.8E1,5E0,4E0,3E0,8E0,3E0,1.05E2],"tree_param":{"num_deleted":"0","num_feature":"5","num_nodes":"59","size_leaf_vector":"1"}},{"base_weights":[-1.02471E-3,2.175668E-1,-4.334115E-3,3.1169845E-2,8.8980295E-2,-1.2237159E-1,2.9364626E-3,3.610738E-2,-2.7065292E-1,2.5958307E-2,-3.9966337E-2,1.8265724E-1,-1.14683155E-2,-3.5385767E-1,-1.5779018E-2,1.1500494E-1,4.5028486E-5,-1.9739868E-1,8.750188E-3,6.5857604E-2,1.6338158E-2,-3.565674E-2,3.0235529E-2,-4.5490646E-1,-3.4146026E-2,3.2070067E-2,-9.2305504E-2,8.831892E-2,3.6420137E-1,-3.7318167E-1,1.2149435E-2,9.691925E-2,-2.4459094E-1,2.5212237E-1,-2.0764582E-2,1.584446E-2,-1.6642571E-3,-1.7819038E-1,-3.535671E-2,-3.608637E-2,-5.4511074E-3,3.941041E-2,-2.404976E-2,1.5242958E-2,1.2895404E-1,-1.3794492E-1,8.998776E-3,-9.514241E-3,2.6962511E-2,-3.5723116E-2,8.418274E-2,-2.9989632E-2,-1.11523695E-1,1.6837709E-1,-6.932717E-2,-4.424052E-2,5.805976E-3],"categories":[],"categories_nodes":[],"categories_segments":[],"categories_sizes":[],"default_left":[0,0,0,0,0,0,0,0,0,0,0,0,0,0,0,0,0,0,0,0,0,0,0,0,0,0,0,0,0,0,0,0,0,0,0,0,0,0,0,0,0,0,0,0,0,0,0,0,0,0,0,0,0,0,0,0,0],"id":18,"left_children":[1,3,5,-1,-1,7,9,11,13,15,17,19,21,23,25,27,29,31,33,-1,-1,-1,35,37,-1,-1,39,41,43,45,47,49,51,53,55,-1,-1,-1,-1,-1,-1,-1,-1,-1,-1,-1,-1,-1,-1,-1,-1,-1,-1,-1,-1,-1,-1],"loss_changes":[2.910295E-1,2.3084909E-2,3.4020677E-1,0E0,0E0,5.5026054E-1,3.7043783E-1,8.576131E-2,2.4889714E-1,5.630224E-1,1.0064392E0,2.2236407E-3,4.8378374E-2,1.6652203E-1,4.742032E-2,3.3358747E-1,8.628946E-1,4.5428085E-1,7.307256E-1,0E0,0E0,0E0,6.7566526E-3,2.1122217E-1,0E0,0E0,4.037764E-3,3.8044038E-1,8.102316E-2,2.2336751E-1,6.3357496E-1,2.3179579E-1,4.5936334E-1,1.7728572E0,4.654145E-1,0E0,0E0,0E0,0E0,0E0,0E0,0E0,0E0,0E0,0E0,0E0,0E0,0E0,0E0,0E0,0E0,0E0,0E0,0E0,0E0,0E0,0E0],"parents":[2147483647,0,0,1,1,2,2,5,5,6,6,7,7,8,8,9,9,10,10,11,11,12,12,13,13,14,14,15,15,16,16,17,17,18,18,22,22,23,23,26,26,27,27,28,28,29,29,30,30,31,31,32,32,33,33,34,34],"right_children":[2,4,6,-1,-1,8,10,12,14,16,18,20,22,24,26,28,30,32,34,-1,-1,-1,36,38,-1,-1,40,42,44,46,48,50,52,54,56,-1,-1,-1,-1,-1,-1,-1,-1,-1,-1,-1,-1,-1,-1,-1,-1,-1,-1,-1,-1,-1,-1],"split_conditions":[1.0431443E-1,3.871667E-1,1.2053762E-1,3.1169845E-2,8.8980295E-2,1.1559681E-1,6.570305E1,-2.787906E-1,-3.5746254E-2,1.04542665E-1,7.283708E1,-2.7058406E-2,-1.6947597E-1,4.792199E-1,-2.5956426E-2,5.9484737E1,1.2239291E-1,1.509643E-1,7.524683E1,6.5857604E-2,1.6338158E-2,-3.565674E-2,3.3996192E-1,1.4581081E-1,-3.4146026E-2,3.2070067E-2,-3.4797803E-2,4.284579E1,-2.4775898E-1,3.604745E1,1.01881586E-1,1.2667213E-2,-1.2488619E-1,4.0915877E-1,6.697296E-2,1.584446E-2,-1.6642571E-3,-1.7819038E-1,-3.535671E-2,-3.608637E-2,-5.4511074E-3,3.941041E-2,-2.404976E-2,1.5242958E-2,1.2895404E-1,-1.3794492E-1,8.998776E-3,-9.514241E-3,2.6962511E-2,-3.5723116E-2,8.418274E-2,-2.9989632E-2,-1.11523695E-1,1.6837709E-1,-6.932717E-2,-4.424052E-2,5.805976E-3],"split_indices":[3,0,3,0,0,3,4,2,2,0,4,0,2,0,2,4,0,3,4,0,0,0,0,1,0,0,0,4,1,4,1,0,2,0,0,0,0,0,0,0,0,0,0,0,0,0,0,0,0,0,0,0,0,0,0,0,0],"split_type":[0,0,0,0,0,0,0,0,0,0,0,0,0,0,0,0,0,0,0,0,0,0,0,0,0,0,0,0,0,0,0,0,0,0,0,0,0,0,0,0,0,0,0,0,0,0,0,0,0,0,0,0,0,0,0,0,0],"sum_hessian":[4E2,5E0,3.95E2,3E0,2E0,2.2E1,3.73E2,1.1E1,1.1E1,2.43E2,1.3E2,2E0,9E0,8E0,3E0,5.4E1,1.89E2,3E1,1E2,1E0,1E0,2E0,7E0,5E0,3E0,1E0,2E0,5E1,4E0,5E0,1.84E2,4E0,2.6E1,1E1,9E1,4E0,3E0,3E0,2E0,1E0,1E0,4E1,1E1,1E0,3E0,4E0,1E0,1.18E2,6.6E1,2E0,2E0,1.3E1,1.3E1,6E0,4E0,2.1E1,6.9E1],"tree_param":{"num_deleted":"0","num_feature":"5","num_nodes":"57","size_leaf_vector":"1"}},{"base_weights":[-8.685547E-4,-1.3671443E-2,4.9104527E-2,1.1483454E-2,-1.350811E-1,1.0082699E-1,-1.978604E-2,-3.5750538E-3,1.3960846E-1,1.3345933E-1,-1.7702365E-1,3.7275374E-2,2.2162855E-1,-1.8261997E-1,6.924009E-2,1.100537E-2,-1.0551885E-1,-1.1605508E-1,2.146101E-1,3.438323E-2,1.2404881E-1,1.0714245E-1,-2.125579E-1,2.1849804E-1,-4.313776E-2,-8.367863E-2,2.735943E-1,-2.541542E-2,-2.776959E-1,2.647663E-1,1.6896535E-2,3.439544E-3,3.9978552E-1,-2.2004028E-1,8.459997E-2,1.10650636E-1,-1.3656388E-1,2.6657295E-1,-1.5378189E-2,3.743973E-2,-2.6742935E-2,1.974678E-2,4.3771077E-2,-2.3837925E-1,3.1360246E-2,-4.8466366E-2,1.4854673E-1,-1.4132275E-1,4.3260135E-2,1.7683011E-1,1.7966256E-1,8.180555E-2,-9.947729E-2,-1.0794392E-1,-6.268883E-3,3.2604218E-3,9.765716E-2,-1.5765698E-1,8.559151E-2,-7.983354E-3,2.2244602E-2,2.1237832E-1,1.8328667E-2,-2.0380948E-2,-1.6148272E-1,-6.849896E-2,8.0881834E-2,-1.6541291E-2,7.186661E-2,3.740255E-2,1.588768E-1,-3.7929155E-2,3.0240059E-2,4.415894E-3,-1.7787362E-2,1.2087822E-3,7.677269E-3,-5.2268397E-2,-1.1046019E-1,3.4455586E-2,-4.539099E-2,1.5497733E-2,-4.9743462E-2,-7.313483E-2,2.9678393E-2,4.4157796E-2,-1.20290285E-2,6.220613E-2,-2.2894764E-2,3.0074501E-2,6.7379954E-3,-7.7422145E-3,-3.462944E-2,2.5779344E-2,-9.028015E-2,3.778314E-2,-6.090546E-3],"categories":[],"categories_nodes":[],"categories_segments":[],"categories_sizes":[],"default_left":[0,0,0,0,0,0,0,0,0,0,0,0,0,0,0,0,0,0,0,0,0,0,0,0,0,0,0,0,0,0,0,0,0,0,0,0,0,0,0,0,0,0,0,0,0,0,0,0,0,0,0,0,0,0,0,0,0,0,0,0,0,0,0,0,0,0,0,0,0,0,0,0,0,0,0,0,0,0,0,0,0,0,0,0,0,0,0,0,0,0,0,0,0,0,0,0,0],"id":19,"left_children":[1,3,5,7,9,11,13,15,17,19,21,23,25,27,29,31,33,35,37,39,-1,41,43,45,47,-1,49,51,53,55,57,59,61,63,65,67,-1,69,71,-1,73,75,-1,77,79,81,-1,83,85,-1,87,89,91,-1,-1,-1,-1,93,95,-1,-1,-1,-1,-1,-1,-1,-1,-1,-1,-1,-1,-1,-1,-1,-1,-1,-1,-1,-1,-1,-1,-1,-1,-1,-1,-1,-1,-1,-1,-1,-1,-1,-1,-1,-1,-1,-1],"loss_changes":[2.5723103E-1,9.788464E-1,2.9417655E-1,5.1371187E-1,6.4310527E-1,3.52564E-1,5.3451777E-1,3.56407E-1,5.618118E-1,2.0774223E-1,5.0746024E-1,4.7575134E-1,4.9250245E-1,1.8724501E-1,2.411553E-1,6.1632794E-1,6.717957E-1,5.885927E-1,2.6701808E-1,4.2024914E-2,0E0,1.7444208E-2,2.783023E-1,7.625758E-1,2.0122208E-1,0E0,3.3911097E-1,5.5783708E-2,1.6118252E-1,7.359335E-2,2.533131E-1,4.4181925E-1,3.742075E-1,8.8312286E-1,7.562864E-1,1.2006298E-1,0E0,6.0575926E-1,7.725362E-2,0E0,7.6204212E-3,1.7245207E-4,0E0,2.606492E-1,9.363193E-2,7.906113E-2,0E0,2.9489392E-1,1.1852732E-1,0E0,1.0797292E-1,1.0319166E-3,1.7223842E-3,0E0,0E0,0E0,0E0,2.3526283E-1,6.665244E-2,0E0,0E0,0E0,0E0,0E0,0E0,0E0,0E0,0E0,0E0,0E0,0E0,0E0,0E0,0E0,0E0,0E0,0E0,0E0,0E0,0E0,0E0,0E0,0E0,0E0,0E0,0E0,0E0,0E0,0E0,0E0,0E0,0E0,0E0,0E0,0E0,0E0,0E0],"parents":[2147483647,0,0,1,1,2,2,3,3,4,4,5,5,6,6,7,7,8,8,9,9,10,10,11,11,12,12,13,13,14,14,15,15,16,16,17,17,18,18,19,19,21,21,22,22,23,23,24,24,26,26,27,27,28,28,29,29,30,30,31,31,32,32,33,33,34,34,35,35,37,37,38,38,40,40,41,41,43,43,44,44,45,45,47,47,48,48,50,50,51,51,52,52,57,57,58,58],"right_children":[2,4,6,8,10,12,14,16,18,20,22,24,26,28,30,32,34,36,38,40,-1,42,44,46,48,-1,50,52,54,56,58,60,62,64,66,68,-1,70,72,-1,74,76,-1,78,80,82,-1,84,86,-1,88,90,92,-1,-1,-1,-1,94,96,-1,-1,-1,-1,-1,-1,-1,-1,-1,-1,-1,-1,-1,-1,-1,-1,-1,-1,-1,-1,-1,-1,-1,-1,-1,-1,-1,-1,-1,-1,-1,-1,-1,-1,-1,-1,-1,-1],"split_conditions":[3.34588E-1,2.9485267E-1,-6.414659E-2,2.751141E-1,1.0024556E1,-1.416824E-1,3.1612173E-2,2.564347E-1,1.0700795E-1,1.445666E-1,-6.944862E-2,3.797515E1,-2.7058406E-2,4.0321064E1,7.176692E-2,2.523415E-1,4.3364593E-1,2.8614214E-1,3.0007097E-1,-8.3846E-2,1.2404881E-1,3.1064382E-1,6.8144524E-1,-1.9374637E-1,3.0708647E-1,-8.367863E-2,-1.3357376E-1,6.141863E-3,8.2355225E1,1.3377841E-1,9.271897E-2,1.888853E-1,-2.894651E-1,3.0708647E-1,3.9525932E1,-3.26198E-1,-1.3656388E-1,1.15012966E-1,4.2700097E-1,3.743973E-2,4.33167E-1,-8.085753E-2,4.3771077E-2,5.060892E-1,7.724711E-1,1.2470121E-1,1.4854673E-1,9.02413E1,3.6120072E-1,1.7683011E-1,3.4435707E-1,4.366429E-1,-6.390173E-2,-1.0794392E-1,-6.268883E-3,3.2604218E-3,9.765716E-2,4.366429E-1,6.9278365E-1,-7.983354E-3,2.2244602E-2,2.1237832E-1,1.8328667E-2,-2.0380948E-2,-1.6148272E-1,-6.849896E-2,8.0881834E-2,-1.6541291E-2,7.186661E-2,3.740255E-2,1.588768E-1,-3.7929155E-2,3.0240059E-2,4.415894E-3,-1.7787362E-2,1.2087822E-3,7.677269E-3,-5.2268397E-2,-1.1046019E-1,3.4455586E-2,-4.539099E-2,1.5497733E-2,-4.9743462E-2,-7.313483E-2,2.9678393E-2,4.4157796E-2,-1.20290285E-2,6.220613E-2,-2.2894764E-2,3.0074501E-2,6.7379954E-3,-7.7422145E-3,-3.462944E-2,2.5779344E-2,-9.028015E-2,3.778314E-2,-6.090546E-3],"split_indices":[3,3,2,3,4,2,2,3,0,2,0,4,0,4,2,3,0,3,1,1,0,3,0,1,0,0,2,1,4,0,2,1,2,0,4,2,0,1,1,0,0,0,0,0,0,0,0,4,3,0,1,0,0,0,0,0,0,0,0,0,0,0,0,0,0,0,0,0,0,0,0,0,0,0,0,0,0,0,0,0,0,0,0,0,0,0,0,0,0,0,0,0,0,0,0,0,0],"split_type":[0,0,0,0,0,0,0,0,0,0,0,0,0,0,0,0,0,0,0,0,0,0,0,0,0,0,0,0,0,0,0,0,0,0,0,0,0,0,0,0,0,0,0,0,0,0,0,0,0,0,0,0,0,0,0,0,0,0,0,0,0,0,0,0,0,0,0,0,0,0,0,0,0,0,0,0,0,0,0,0,0,0,0,0,0,0,0,0,0,0,0,0,0,0,0,0,0],"sum_hessian":[4E2,3.19E2,8.1E1,2.65E2,5.4E1,4.6E1,3.5E1,2.38E2,2.7E1,7E0,4.7E1,3.1E1,1.5E1,1.2E1,2.3E1,2.09E2,2.9E1,6E0,2.1E1,6E0,1E0,5E0,4.2E1,9E0,2.2E1,1E0,1.4E1,5E0,7E0,4E0,1.9E1,2.06E2,3E0,1.8E1,1.1E1,4E0,2E0,1.7E1,4E0,2E0,4E0,2E0,3E0,3.8E1,4E0,5E0,4E0,1E1,1.2E1,2E0,1.2E1,2E0,3E0,5E0,2E0,1E0,3E0,5E0,1.4E1,1.45E2,6.1E1,1E0,2E0,1.3E1,5E0,4E0,7E0,2E0,2E0,1.2E1,5E0,2E0,2E0,2E0,2E0,1E0,1E0,2.7E1,1.1E1,3E0,1E0,3E0,2E0,7E0,3E0,5E0,7E0,1.1E1,1E0,1E0,1E0,1E0,2E0,2E0,3E0,1E1,4E0],"tree_param":{"num_deleted":"0","num_feature":"5","num_nodes":"97","size_leaf_vector":"1"}},{"base_weights":[3.7408766E-4,1.1442597E-2,-4.2170834E-2,-3.306812E-3,1.2748119E-1,-2.2718325E-1,-1.659928E-2,1.5080589E-2,-1.3455091E-1,2.192714E-1,-1.5643183E-2,-3.2180446E-1,-4.8003197E-3,-2.0208804E-1,-2.2925502E-4,-9.863944E-2,2.5398156E-2,-3.3482996E-1,-6.280786E-2,6.797123E-2,4.3026373E-1,8.623677E-2,-8.43858E-2,-6.7461967E-3,-1.3111016E-1,-8.167839E-2,3.3875085E-2,3.4758884E-2,-3.2920122E-1,1.463973E-1,-3.3666376E-2,4.9037933E-2,-2.373496E-1,1.4226265E-1,4.399913E-3,-4.203753E-1,-7.0842747E-3,-1.9539261E-2,-4.0244356E-1,-1.1647663E-1,1.5339804E-1,3.324552E-2,1.7145501E-1,-1.5386525E-1,1.1040926E-1,-3.0282212E-2,-6.473065E-3,1.4983464E-2,6.580353E-4,-2.104311E-2,-1.1765175E-1,2.624631E-3,3.1369463E-1,-2.7197695E-1,-1.539029E-2,3.0679977E-2,-1.05869295E-2,-1.0238759E-1,-1.3308106E-2,2.1168076E-2,1.0246887E-1,-7.818651E-3,1.9858107E-2,1.8595792E-2,-1.5332995E-1,-3.5074674E-2,2.8708411E-2,-3.7901975E-2,-1.4319764E-1,-8.4840104E-2,2.6601793E-2,-5.790067E-3,6.9050625E-2,-6.66132E-2,-1.2383309E-2,-3.2005407E-2,6.550064E-2,-3.4084324E-2,1.8092014E-2,1.1890858E-1,-1.4946271E-2,-1.0285035E-1,-8.910656E-3,-3.5648987E-2,9.387108E-3],"categories":[],"categories_nodes":[],"categories_segments":[],"categories_sizes":[],"default_left":[0,0,0,0,0,0,0,0,0,0,0,0,0,0,0,0,0,0,0,0,0,0,0,0,0,0,0,0,0,0,0,0,0,0,0,0,0,0,0,0,0,0,0,0,0,0,0,0,0,0,0,0,0,0,0,0,0,0,0,0,0,0,0,0,0,0,0,0,0,0,0,0,0,0,0,0,0,0,0,0,0,0,0,0,0],"id":20,"left_children":[1,3,5,7,9,11,13,15,17,19,21,23,25,27,29,31,33,35,37,39,41,-1,43,-1,-1,45,-1,47,49,51,53,55,57,59,61,63,-1,65,67,69,71,-1,-1,73,75,-1,-1,-1,-1,-1,-1,77,79,81,83,-1,-1,-1,-1,-1,-1,-1,-1,-1,-1,-1,-1,-1,-1,-1,-1,-1,-1,-1,-1,-1,-1,-1,-1,-1,-1,-1,-1,-1,-1],"loss_changes":[1.8931699E-1,5.4639024E-1,3.8890648E-1,6.8738866E-1,4.7637713E-1,2.0887667E-1,2.246514E-1,2.9583374E-1,4.8187208E-1,6.730645E-1,3.3679453E-1,2.3160315E-1,4.5422383E-2,1.9208084E-1,3.4321976E-1,4.418105E-1,5.6378233E-1,2.2968066E-1,3.8891673E-1,2.3846236E-1,3.4276867E-1,0E0,1.9293344E-1,0E0,0E0,1.2950953E-3,0E0,1.3740633E-3,3.7744313E-2,3.1186286E-1,2.4407111E-1,5.298411E-2,2.0551753E-1,4.7606003E-1,3.706691E-1,3.3801484E-1,0E0,2.9171464E-1,1.7202199E-3,1.9568262E-1,1.3702402E-1,0E0,0E0,6.759533E-2,1.1701356E-1,0E0,0E0,0E0,0E0,0E0,0E0,6.049098E-2,2.000522E-1,5.848503E-2,2.6446426E-1,0E0,0E0,0E0,0E0,0E0,0E0,0E0,0E0,0E0,0E0,0E0,0E0,0E0,0E0,0E0,0E0,0E0,0E0,0E0,0E0,0E0,0E0,0E0,0E0,0E0,0E0,0E0,0E0,0E0,0E0],